tree
version=v4
num_class=1
num_tree_per_iteration=1
label_index=0
max_feature_idx=62
objective=regression
feature_names=product_id month_target store_id category_id product_ave_num product_ave_price category_ave_num category_ave_price store_ave_num store_ave_price p_c_nun p_s_nun c_s_nun p_c_price p_s_price c_s_price p_c_s_nun p_c_s_price product_price_1 product_price_2 product_price_3 product_price_4 product_price_5 product_price_6 product_price_7 product_price_8 product_price_9 product_price_10 product_price_11 product_price_12 product_price_13 product_price_14 product_price_15 product_price_16 product_price_17 product_price_18 product_price_19 product_price_20 product_price_21 product_price_22 product_num_1 product_num_2 product_num_3 product_num_4 product_num_5 product_num_6 product_num_7 product_num_8 product_num_9 product_num_10 product_num_11 product_num_12 product_num_13 product_num_14 product_num_15 product_num_16 product_num_17 product_num_18 product_num_19 product_num_20 product_num_21 product_num_22 main_flag
feature_infos=[1000001:3500073] none [0:17] [100:350] [0:20.75] [0.90909090909090917:23798.636363636364] [0.0385703185703185:1.1475991802078758] [145.26761864261491:1774.0433314125039] [0.1970082461786001:0.62867055510860803] [389.54639114542948:401.23914757787605] [0:22.65460452641716] [0:13.044914018503617] [0.0075986708160883003:0.72146181366346873] [186.66231684888317:40901703.767702445] [354.13308285948136:9548944.5680612978] [56588.476592521147:711815.63406216854] [0:14.24228280338866] [72713.631891327124:16411364754.235731] [0:56080] [0:16910] [0:56080] [0:50490] [0:42330] [0:23800] [0:56080] [0:37380] [0:62880] [0:71400] [0:61180] [0:523570] [0:30600] [0:62880] [0:31010] [0:62880] [0:62880] [0:35530] [0:23800] [0:23800] [0:23800] [0:23800] [0:197] [0:141] [0:416] [0:166] [0:114] [0:408] [0:154] [0:114] [0:98] [0:260] [0:237] [0:162] [0:112] [0:91] [0:104] [0:130] [0:96] [0:160] [0:53] [0:59] [0:73] [0:239] [0:1]
tree_sizes=2683 2694 2697 2695 2700 2712 2705 2714 2708 2722 2729 2735 2733 2741 2741 2744 2749 2760 2753 2759 2768 2757 2772 2762 2773 2780 2777 2783 2780 2789 2794 2803 2826 2842 2822 2835 2836 2849 2854 2862 2856 2859 2859 2857 2865 2868 2866 2875 2893 2891 2895 2892 2913 2912 2936 2917 2918 2932 2940 2945 2929 2961 2966 2959 2946 2977 2937 2945 2990 2977 2942 2985 2945 2967 2979 2998 2986 2925 3000 2983 3016 2981 2960 2969 2995 2987 3006 2990 2991 2983 3013 3018 2987 3009 2985 3016 3016 2966 3028 3015 2967 3003 3003 3010 2991 2993

Tree=0
num_leaves=31
num_cat=0
split_feature=51 51 51 51 51 51 51 51 51 51 51 51 51 51 51 51 51 51 51 51 51 51 51 51 51 51 51 51 51 51
split_gain=643253 173173 170636 37321.7 36083.9 29163.1 26620.6 6028.37 5683.14 4916.5 4617.79 4523.91 3687.55 947.241 873.552 708.485 592.473 590.844 567.849 471.691 363.046 165.879 131.02 102.347 93.456 92.9056 90.4946 83.503 66.6308 47.0899
threshold=14.500000000000002 2.5000000000000004 48.500000000000007 6.5000000000000009 27.500000000000004 84.500000000000014 1.0000000180025095e-35 9.5000000000000018 36.500000000000007 20.500000000000004 64.000000000000014 4.5000000000000009 1.5000000000000002 11.500000000000002 3.5000000000000004 17.500000000000004 42.500000000000007 31.500000000000004 23.500000000000004 7.5000000000000009 5.5000000000000009 12.500000000000002 8.5000000000000018 15.500000000000002 10.500000000000002 29.500000000000004 25.500000000000004 33.500000000000007 18.500000000000004 13.500000000000002
decision_type=2 2 2 2 2 2 2 2 2 2 2 2 2 2 2 2 2 2 2 2 2 2 2 2 2 2 2 2 2 2
left_child=1 6 4 11 9 10 -1 19 17 15 -4 14 -8 24 -3 23 -10 25 -11 -5 -13 -15 -21 -2 -9 -6 -20 -19 -17 -23
right_child=2 3 5 7 8 -7 12 13 16 18 -12 20 -14 21 -16 28 -18 27 26 22 -22 29 -24 -25 -26 -27 -28 -29 -30 -31
leaf_value=0.46753768968156162 1.9675376777606328 0.76753767776063264 5.9912219836543805 1.1675376777606328 3.3043798783912224 11.067537773128066 0.5675376896815616 1.4675376777606326 4.4265121321024239 2.654906194180696 7.8389663445566349 0.96753767776063271 0.66753768968156169 1.6675376777606328 0.86753767776063273 2.2675377731280646 4.9932520588423497 3.6948105004007918 2.9095377731280645 1.2675376777606329 1.0675376777606327 1.7675376777606329 1.3675376777606327 2.1187773960480771 1.5675376777606327 3.5269972325875236 3.106174136764428 3.9463256519159433 2.4169495378339465 1.8675376777606327
leaf_weight=134274 71 2420 38 445 38 20 14160 177 39 95 21 874 4986 129 1367 46 35 22 50 343 621 100 212 121 198 37 44 33 85 89
leaf_count=134274 71 2420 38 445 38 20 14160 177 39 95 21 874 4986 129 1367 46 35 22 50 343 621 100 212 121 198 37 44 33 85 89
internal_value=0.519486 0.505422 3.35697 0.992742 2.87033 7.76754 0.483267 1.40132 3.99499 2.42223 6.64889 0.861782 0.59358 1.628 0.803635 2.18518 4.69456 3.59677 2.82733 1.24424 1.00908 1.75496 1.30574 2.06285 1.52034 3.4142 3.00158 3.84572 2.36448 1.81463
internal_weight=0 160395 795 6975 716 79 153420 1693 204 512 59 5282 19146 693 3787 323 74 130 189 1000 1495 318 555 192 375 75 94 55 131 189
internal_count=161190 160395 795 6975 716 79 153420 1693 204 512 59 5282 19146 693 3787 323 74 130 189 1000 1495 318 555 192 375 75 94 55 131 189
is_linear=0
shrinkage=1


Tree=1
num_leaves=31
num_cat=0
split_feature=51 51 51 51 51 51 51 51 51 51 51 51 51 51 51 51 51 51 51 51 51 51 51 51 51 51 51 51 51 49
split_gain=521035 140270 138349 30230.5 27221.6 25641 21562.7 4882.98 4515 3664.36 3403.39 3381.01 2986.91 767.265 707.577 559.374 520.493 507.984 382.07 340.42 294.067 134.362 106.126 98.9932 84.6672 82.0571 75.6995 58.2183 51.1041 48.4179
threshold=14.500000000000002 2.5000000000000004 47.500000000000007 6.5000000000000009 26.500000000000004 79.500000000000014 1.0000000180025095e-35 9.5000000000000018 35.500000000000007 4.5000000000000009 19.500000000000004 60.500000000000007 1.5000000000000002 11.500000000000002 3.5000000000000004 22.500000000000004 40.500000000000007 30.500000000000004 7.5000000000000009 16.500000000000004 5.5000000000000009 12.500000000000002 8.5000000000000018 32.500000000000007 43.500000000000007 24.500000000000004 10.500000000000002 17.500000000000004 28.500000000000004 4.5000000000000009
decision_type=2 2 2 2 2 2 2 2 2 2 2 2 2 2 2 2 2 2 2 2 2 2 2 2 2 2 2 2 2 2
left_child=1 6 4 9 10 11 -1 18 17 14 19 29 -8 26 -3 -12 -10 28 -5 -2 -11 -15 -20 -19 -18 -17 -9 -21 -6 -4
right_child=2 3 5 7 8 -7 12 13 16 20 15 -13 -14 21 -16 25 24 23 22 27 -22 -23 -24 -25 -26 -27 -28 -29 -30 -31
leaf_value=-0.046753770112991339 1.3417668856107272 0.22324624061584475 4.8708676147460936 0.58324623107910156 2.4363168390785779 9.2179669255795691 0.04324623048305512 0.85324621200561523 3.3657059613396143 0.40324621200561528 1.8353970697947912 6.3042441628196029 0.13324623107910158 1.0332462310791015 0.31324622631073001 2.0745384392914952 3.7500443231491816 2.7823397385446653 0.67324624061584482 1.4881222724914551 0.49324622154235842 1.1656271722581653 0.76324625015258796 3.0231387169130386 4.0340081532796228 2.2542353868484497 0.94324626922607424 1.6143420101551529 2.609771465433055 4.650827026367188
leaf_weight=134274 130 2420 20 445 41 23 14160 177 34 874 112 22 4986 129 1367 54 21 38 343 62 621 189 212 31 21 48 198 89 29 20
leaf_count=134274 130 2420 20 445 41 23 14160 177 34 874 112 22 4986 129 1367 54 21 38 343 62 621 189 212 31 21 48 198 89 29 20
internal_value=0 -0.0126576 2.55374 0.42593 2.0973 6.36636 -0.0325973 0.793654 3.03683 0.308066 1.68922 5.3085 0.066684 0.997662 0.255734 1.98969 3.65657 2.69798 0.652276 1.46039 0.440631 1.11193 0.707625 2.89052 3.89203 2.1591 0.900766 1.56252 2.50818 4.76085
internal_weight=0 160395 795 6975 710 85 153420 1693 215 5282 495 62 19146 693 3787 214 76 139 1000 281 1495 318 555 69 42 102 375 151 70 40
internal_count=161190 160395 795 6975 710 85 153420 1693 215 5282 495 62 19146 693 3787 214 76 139 1000 281 1495 318 555 69 42 102 375 151 70 40
is_linear=0
shrinkage=0.1


Tree=2
num_leaves=31
num_cat=0
split_feature=51 51 51 51 51 51 51 51 51 51 51 51 51 51 51 51 51 51 51 51 51 51 51 51 51 51 51 51 51 51
split_gain=422091 119891 106904 25831.6 22158.8 17953.5 17682.7 5616.08 3517.49 3303.95 3122.51 2417.42 1648.78 1068.94 469.407 410.481 356.736 349.791 348.034 337.588 257.562 207.465 127.086 65.6627 61.3165 59.3815 51.5594 44.6654 39.6747 35.9235
threshold=15.500000000000002 3.5000000000000004 50.500000000000007 1.0000000180025095e-35 28.500000000000004 8.5000000000000018 84.500000000000014 1.5000000000000002 38.500000000000007 5.5000000000000009 21.500000000000004 64.000000000000014 11.500000000000002 2.5000000000000004 6.5000000000000009 18.500000000000004 32.500000000000007 4.5000000000000009 24.500000000000004 44.500000000000007 13.500000000000002 9.5000000000000018 7.5000000000000009 41.500000000000007 10.500000000000002 26.500000000000004 16.500000000000004 34.500000000000007 30.500000000000004 19.500000000000004
decision_type=2 2 2 2 2 2 2 2 2 2 2 2 2 2 2 2 2 2 2 2 2 2 2 2 2 2 2 2 2 2
left_child=1 3 4 -1 10 9 11 -5 16 17 15 -4 21 -9 -11 26 28 -3 -12 23 -14 -7 -16 -10 -23 -20 -2 -18 -6 -17
right_child=2 5 6 7 8 12 -8 13 19 14 18 -13 20 -15 22 29 27 -19 25 -21 -22 24 -24 -25 -26 -27 -28 -29 -30 -31
leaf_value=-0.042078390717506409 1.2539455413818361 0.28192160129547122 4.5346876740455633 0.038921606540679936 2.3487942925814926 0.68692159652709961 8.5714492797851562 0.11992161273956299 3.1878178369431271 0.44392161369323735 1.8230410301822357 5.9154828389485683 0.96344211320169115 0.2009216070175171 0.52492160797119147 1.4968708038330079 2.6816682270595007 0.36292161941528323 2.0288119554519652 3.7701595453115608 1.1288048225641252 0.76792159080505373 0.6059216022491456 3.4323928501295011 0.84892158508300786 2.1926852063434881 1.3701905321191861 2.8745961734226775 2.5041057185122844 1.6104559669011758
leaf_weight=134274 59 1367 32 14160 29 212 20 4986 21 621 87 21 229 2420 445 43 21 874 48 26 160 177 343 23 198 41 108 28 38 79
leaf_count=134274 59 1367 32 14160 29 212 20 4986 21 621 87 21 229 2420 445 43 21 874 48 26 160 177 343 23 198 41 108 28 38 79
internal_value=0 -0.0108696 2.40911 -0.025762 2.0022 0.490824 6.03786 0.0758272 2.92467 0.388953 1.63321 5.0818 0.871796 0.146389 0.50894 1.43099 2.58685 0.313512 1.96527 3.48448 1.03146 0.76599 0.560179 3.31566 0.81069 2.1043 1.32912 2.79191 2.43688 1.57042
internal_weight=0 160466 724 155840 651 4626 73 21566 186 3650 465 53 976 7406 1409 289 116 2241 176 70 389 587 788 44 375 89 167 49 67 122
internal_count=161190 160466 724 155840 651 4626 73 21566 186 3650 465 53 976 7406 1409 289 116 2241 176 70 389 587 788 44 375 89 167 49 67 122
is_linear=0
shrinkage=0.1


Tree=3
num_leaves=31
num_cat=0
split_feature=51 51 51 51 51 51 51 51 51 51 51 51 51 51 51 51 51 51 51 51 51 51 51 51 51 51 51 51 51 51
split_gain=341970 92011.1 91027.5 20502.6 19817.2 14323 14147.3 3493.7 3194.28 2635.36 2404.19 1959.71 1958.11 498.125 464.241 386.198 368.347 302.9 302.437 250.676 192.938 95.0715 69.6293 66.0145 62.3104 54.2851 49.6664 48.0188 46.6946 33.0745
threshold=14.500000000000002 2.5000000000000004 50.500000000000007 27.500000000000004 6.5000000000000009 84.500000000000014 1.0000000180025095e-35 37.500000000000007 9.5000000000000018 20.500000000000004 4.5000000000000009 1.5000000000000002 64.000000000000014 11.500000000000002 3.5000000000000004 31.500000000000004 17.500000000000004 23.500000000000004 44.500000000000007 7.5000000000000009 5.5000000000000009 12.500000000000002 8.5000000000000018 41.500000000000007 34.500000000000007 15.500000000000002 10.500000000000002 29.500000000000004 25.500000000000004 18.500000000000004
decision_type=2 2 2 2 2 2 2 2 2 2 2 2 2 2 2 2 2 2 2 2 2 2 2 2 2 2 2 2 2 2
left_child=1 6 3 9 10 12 -1 15 19 16 14 -8 -4 26 -3 27 25 -11 23 -6 -12 -15 -21 -9 -17 -2 -10 -5 -19 -18
right_child=2 4 5 7 8 -7 11 18 13 17 20 -13 -14 21 -16 24 29 28 -20 22 -22 -23 -24 -25 -26 -27 -28 -29 -30 -31
leaf_value=-0.037870553135871891 1.0561890602111816 0.1808294415473938 4.0812189698219301 2.0313621019062245 0.4724294662475586 7.7143045043945309 0.035029447078704833 2.8520713011423751 0.69112944602966309 1.5580204060203151 0.32662944793701176 0.10792944431304932 5.323934664045062 0.8335774421691895 0.25372943878173831 2.365230266467945 1.2747929573059082 1.7450986175537111 3.3931435218224162 0.54532942771911619 0.39952945709228516 0.9449332898256011 0.61822943687438969 3.0891535137010657 2.56959464263916 1.1663351413632228 0.76402945518493659 2.1914076263840134 1.886347805369984 1.380060386657715
leaf_weight=134274 71 2420 32 38 445 20 14160 24 177 95 874 4986 21 129 1367 37 46 50 26 343 621 189 212 23 25 121 198 37 44 85
leaf_count=134274 71 2420 32 38 445 20 14160 24 177 95 874 4986 21 129 1367 37 46 50 26 343 621 189 212 23 25 121 198 37 44 85
internal_value=0 -0.0102545 2.06889 1.72864 0.344962 5.43408 -0.0264038 2.56071 0.642691 1.38736 0.249534 0.0540141 4.57362 0.807694 0.207144 2.26297 1.21381 1.68395 3.11948 0.528344 0.356911 0.899761 0.573176 2.96809 2.44764 1.1256 0.729621 2.11032 1.81122 1.3431
internal_weight=0 160395 795 722 6975 73 153420 210 1693 512 5282 19146 53 693 3787 137 323 189 73 1000 1495 318 555 47 62 192 375 75 94 131
internal_count=161190 160395 795 722 6975 73 153420 210 1693 512 5282 19146 53 693 3787 137 323 189 73 1000 1495 318 555 47 62 192 375 75 94 131
is_linear=0
shrinkage=0.1


Tree=4
num_leaves=31
num_cat=0
split_feature=51 51 51 51 51 51 51 51 51 51 51 51 51 51 51 51 51 51 51 51 51 51 51 51 51 51 51 51 51 51
split_gain=276996 74529 73909.2 18028.7 16052 11459.3 10103.3 2706.04 2674.86 2587.37 1947.39 1587.37 1130.45 446.958 403.481 376.035 316.222 238.1 224.63 203.048 156.279 78.161 66.3022 56.3997 52.7544 48.2824 40.2297 39.0074 33.2224 24.2611
threshold=14.500000000000002 2.5000000000000004 52.500000000000007 28.500000000000004 6.5000000000000009 1.0000000180025095e-35 84.500000000000014 38.500000000000007 21.500000000000004 9.5000000000000018 4.5000000000000009 1.5000000000000002 64.000000000000014 17.500000000000004 11.500000000000002 3.5000000000000004 45.500000000000007 33.500000000000007 24.500000000000004 7.5000000000000009 5.5000000000000009 13.500000000000002 19.500000000000004 8.5000000000000018 41.500000000000007 16.500000000000004 10.500000000000002 26.500000000000004 30.500000000000004 12.500000000000002
decision_type=2 2 2 2 2 2 2 2 2 2 2 2 2 2 2 2 2 2 2 2 2 2 2 2 2 2 2 2 2 2
left_child=1 5 3 8 10 -1 12 17 13 19 15 -7 -4 25 26 -3 24 28 -10 -6 -12 29 -15 -21 -9 -2 -11 -20 -5 -16
right_child=2 4 6 7 9 11 -8 16 18 14 20 -13 -14 22 21 -17 -18 -19 27 23 -22 -23 -24 -25 -26 -27 -28 -29 -30 -31
leaf_value=-0.034083497524261479 0.978412435238178 0.16274650096893312 3.7963075561523443 1.9025004156704608 0.42518649101257328 0.031526502966880803 6.9428741455078127 2.5838288080124627 1.4786989255883229 0.62201652526855478 0.29396650791168216 0.097136503458023077 4.7915410178048274 1.1772030358903864 0.7502196311950684 0.22835650444030764 3.1209378801543139 2.2822249390358151 1.6434755563735963 0.49079651832580568 0.35957651138305669 0.88930969238281254 1.3030694973619679 0.55640649795532227 2.795157517327203 1.0856575012207033 0.68762650489807131 1.7762931916771867 2.0403645862232556 0.81584596633911133
leaf_weight=134274 130 2420 25 29 445 14160 20 21 87 177 874 4986 21 89 129 1367 29 43 48 343 621 89 79 212 27 62 198 41 44 100
leaf_count=134274 130 2420 25 29 445 14160 20 21 87 177 874 4986 21 89 129 1367 29 43 48 343 621 89 79 212 27 62 198 41 44 100
internal_value=0 -0.00922902 1.862 1.57188 0.310466 -0.0237635 5.06648 2.40063 1.27347 0.578422 0.22458 0.0486127 4.25065 1.11727 0.726924 0.18643 2.86022 2.09555 1.59296 0.475509 0.32122 0.809785 1.23639 0.515858 2.7027 1.01304 0.656659 1.70466 1.9856 0.778877
internal_weight=0 160395 795 729 6975 153420 66 193 536 1693 5282 19146 46 360 693 3787 77 116 176 1000 1495 318 168 555 48 192 375 89 73 229
internal_count=161190 160395 795 729 6975 153420 66 193 536 1693 5282 19146 46 360 693 3787 77 116 176 1000 1495 318 168 555 48 192 375 89 73 229
is_linear=0
shrinkage=0.1


Tree=5
num_leaves=31
num_cat=0
split_feature=51 51 51 51 51 51 51 51 51 51 51 51 51 51 51 51 51 51 27 51 51 51 51 51 51 51 51 51 51 51
split_gain=224386 63700.5 57098.4 13899.4 13728 9530.27 7094.46 2984.62 2238.05 1915.31 1755.86 871.632 568.079 257.116 249.462 247.344 220.802 215.446 206.083 185.893 141.62 110.256 67.5388 37.3942 36.804 32.5861 28.2534 27.8128 19.6515 18.9333
threshold=15.500000000000002 3.5000000000000004 54.500000000000007 29.500000000000004 1.0000000180025095e-35 8.5000000000000018 84.500000000000014 1.5000000000000002 39.500000000000007 21.500000000000004 5.5000000000000009 11.500000000000002 2.5000000000000004 46.500000000000007 6.5000000000000009 25.500000000000004 34.500000000000007 18.500000000000004 240.13423295454547 4.5000000000000009 13.500000000000002 9.5000000000000018 7.5000000000000009 23.500000000000004 31.500000000000004 10.500000000000002 27.500000000000004 16.500000000000004 12.500000000000002 20.500000000000004
decision_type=2 2 2 2 2 2 2 2 2 2 2 2 2 2 2 2 2 2 2 2 2 2 2 2 2 2 2 2 2 2
left_child=1 4 3 9 -1 10 18 -6 16 17 19 21 -9 -10 -12 23 24 27 -4 -3 28 -7 -16 -11 -5 -23 -17 -2 -13 -19
right_child=2 5 6 8 7 11 -8 12 13 15 14 20 -14 -15 22 26 -18 29 -20 -21 -22 25 -24 -25 -26 -27 -28 -29 -30 -31
leaf_value=-0.030675148963928225 0.91407623291015627 0.2055208444595337 3.7149088859558108 1.7738194130562448 0.028373852372169495 0.50076584815979008 6.2485868072509767 0.087422853708267217 2.5042211619290438 1.2977892941442031 0.32361884117126466 0.6751976966857911 0.14647185802459717 2.8877520594103583 0.38266785144805909 1.5282338619232179 2.1408960191827071 1.1181147440742043 4.1688722991943363 0.26456985473632816 0.82360912084579463 0.55981483459472658 0.44171686172485353 1.4157982120513917 1.914865689664274 0.61886386871337895 1.6459468239232113 0.99945351989180953 0.73426136970520028 1.2038150787353517
leaf_weight=134274 59 1367 20 37 14160 212 20 4986 44 58 621 129 2420 29 445 44 38 85 20 874 160 177 343 50 37 198 38 108 100 37
leaf_count=134274 59 1367 20 37 14160 212 20 4986 44 58 621 129 2420 29 445 44 38 85 20 874 160 177 343 50 37 198 38 108 100 37
internal_value=0 -0.00792514 1.75651 1.48956 -0.0187805 0.357768 4.71079 0.055278 2.22576 1.20522 0.283546 0.635337 0.106718 2.65658 0.371017 1.45184 1.94496 1.04309 3.94189 0.22855 0.751424 0.558407 0.408371 1.35242 1.84434 0.590993 1.58278 0.96929 0.70099 1.14411
internal_weight=0 160466 724 664 155840 4626 60 21566 185 479 3650 976 7406 73 1409 190 112 289 40 2241 389 587 788 108 74 375 82 167 229 122
internal_count=161190 160466 724 664 155840 4626 60 21566 185 479 3650 976 7406 73 1409 190 112 289 40 2241 389 587 788 108 74 375 82 167 229 122
is_linear=0
shrinkage=0.1


Tree=6
num_leaves=31
num_cat=0
split_feature=51 51 51 51 51 51 51 51 51 51 51 51 51 51 51 51 51 51 51 51 51 51 51 51 51 51 51 51 51 51
split_gain=181799 48887.8 48537.3 11814.3 10522.7 7518.46 6615.93 1781.79 1747.27 1692.6 1277.68 1041.47 852.856 294.777 261.956 246.717 227.348 148.517 137.792 133.22 102.535 49.1724 44.5146 37.0039 33.461 28.9486 26.3947 25.6613 20.3725 16.0673
threshold=14.500000000000002 2.5000000000000004 52.500000000000007 28.500000000000004 6.5000000000000009 1.0000000180025095e-35 84.500000000000014 37.500000000000007 21.500000000000004 9.5000000000000018 4.5000000000000009 1.5000000000000002 64.000000000000014 17.500000000000004 11.500000000000002 3.5000000000000004 44.500000000000007 24.500000000000004 32.500000000000007 7.5000000000000009 5.5000000000000009 12.500000000000002 19.500000000000004 8.5000000000000018 41.500000000000007 16.500000000000004 10.500000000000002 26.500000000000004 22.500000000000004 30.500000000000004
decision_type=2 2 2 2 2 2 2 2 2 2 2 2 2 2 2 2 2 2 2 2 2 2 2 2 2 2 2 2 2 2
left_child=1 5 3 8 10 -1 12 18 13 19 15 -7 -4 25 26 -3 24 28 29 -6 -12 -16 -15 -21 -9 -2 -11 -19 -10 -5
right_child=2 4 6 7 9 11 -8 16 17 14 20 -13 -14 22 21 -17 -18 27 -20 23 -22 -23 -24 -25 -26 -27 -28 -29 -30 -31
leaf_value=-0.02760763168334961 0.79410444993239182 0.13182467222213745 3.0505109710693361 1.541041610980856 0.34440107345581056 0.025536465644836429 5.623728179931641 2.0815093835194904 1.1352147102355958 0.50383338928222654 0.23811287879943849 0.078680568933486947 3.9149555024646574 0.95380430757329704 0.60767793655395508 0.18496876955032349 2.5065497022686585 1.3312236547470093 1.8218663049780806 0.39754517078399659 0.29125697612762452 0.68776247362611154 1.0569372442704212 0.45068926811218263 2.2503003078958264 0.877146339416504 0.55697746276855475 1.4389500431898163 1.2349452795805755 1.6398783834357014
leaf_weight=134274 130 2420 25 29 445 14160 20 24 33 177 874 4986 21 89 129 1367 33 48 46 343 621 189 79 212 23 62 198 41 54 38
leaf_count=134274 130 2420 25 29 445 14160 20 24 33 177 874 4986 21 89 129 1367 33 48 46 343 621 189 79 212 23 62 198 41 54 38
internal_value=0 -0.00747679 1.50848 1.27337 0.251448 -0.0192484 4.10532 1.94425 1.03181 0.468399 0.18191 0.0393762 3.44515 0.905565 0.58851 0.151008 2.30537 1.29003 1.6886 0.385163 0.260188 0.655275 1.0023 0.417845 2.16411 0.82092 0.531893 1.38085 1.19712 1.5971
internal_weight=0 160395 795 729 6975 153420 66 193 536 1693 5282 19146 46 360 693 3787 80 176 113 1000 1495 318 168 555 47 192 375 89 87 67
internal_count=161190 160395 795 729 6975 153420 66 193 536 1693 5282 19146 46 360 693 3787 80 176 113 1000 1495 318 168 555 47 192 375 89 87 67
is_linear=0
shrinkage=0.1


Tree=7
num_leaves=31
num_cat=0
split_feature=51 51 51 51 51 51 51 51 51 51 51 51 51 51 51 51 27 51 51 51 51 51 51 51 51 51 51 51 51 5
split_gain=147268 41783.9 37545.5 9096.85 9006.92 6245.23 4633.1 1958.21 1461.58 1253.69 1152.02 568.713 372.717 211.473 167.872 163.672 156.5 148.228 121.964 96.3257 94.5471 72.3387 44.3122 32.9401 23.4581 21.3798 18.6236 16.2551 11.4828 8.25536
threshold=15.500000000000002 3.5000000000000004 54.500000000000007 29.500000000000004 1.0000000180025095e-35 8.5000000000000018 84.500000000000014 1.5000000000000002 39.500000000000007 22.500000000000004 5.5000000000000009 11.500000000000002 2.5000000000000004 18.500000000000004 46.500000000000007 6.5000000000000009 240.13423295454547 34.500000000000007 4.5000000000000009 13.500000000000002 25.500000000000004 9.5000000000000018 7.5000000000000009 20.500000000000004 31.500000000000004 10.500000000000002 27.500000000000004 16.500000000000004 12.500000000000002 702.51182277318651
decision_type=2 2 2 2 2 2 2 2 2 2 2 2 2 2 2 2 2 2 2 2 2 2 2 2 2 2 2 2 2 2
left_child=1 4 3 9 -1 10 16 -6 17 13 18 21 -9 27 29 -12 -4 24 -3 28 -11 -7 -17 -15 -5 -23 -22 -2 -13 -10
right_child=2 5 6 8 7 11 -8 12 14 20 15 19 -14 23 -16 22 -18 -19 -20 -21 26 25 -24 -25 -26 -27 -28 -29 -30 -31
leaf_value=-0.024846869707107547 0.74325819015502936 0.16647189855575562 2.9994667339324952 1.4364565900854163 0.022982820868492126 0.40562033653259277 5.0613553047180178 0.0708125114440918 1.9876235564549765 1.1270554644266766 0.26213126182556151 0.54691014289855955 0.11864219903945923 0.90582685358384085 2.3370674988319133 0.30996096134185791 3.3950672817230227 1.7357372936449555 0.21430158615112305 0.66775304585695272 1.2381259571422232 0.45345001220703129 0.35779066085815431 0.99846070834568568 1.5490622211147 0.50127973556518557 1.3336958433452406 0.80852848777064568 0.59205899238586424 2.0746144485473632
leaf_weight=134274 59 1367 20 37 14160 212 20 4986 24 75 621 129 2420 85 29 445 20 38 874 160 44 177 343 70 37 198 38 108 100 20
leaf_count=134274 59 1367 20 37 14160 212 20 4986 24 75 621 129 2420 85 29 445 20 38 874 160 44 177 343 70 37 198 38 108 100 20
internal_value=0 -0.00642041 1.42301 1.20654 -0.0152122 0.289755 3.81863 0.0447752 1.80212 0.976509 0.229673 0.51445 0.0864414 0.863543 2.15028 0.300524 3.19727 1.5752 0.185126 0.608221 1.2082 0.452309 0.33078 0.947661 1.49276 0.478704 1.28241 0.785469 0.566626 2.02716
internal_weight=0 160466 724 664 155840 4626 60 21566 185 479 3650 976 7406 322 73 1409 40 112 2241 389 157 587 788 155 74 375 82 167 229 44
internal_count=161190 160466 724 664 155840 4626 60 21566 185 479 3650 976 7406 322 73 1409 40 112 2241 389 157 587 788 155 74 375 82 167 229 44
is_linear=0
shrinkage=0.1


Tree=8
num_leaves=31
num_cat=0
split_feature=51 51 51 51 51 51 51 51 51 51 51 51 51 51 51 51 51 51 51 51 51 51 51 51 51 51 51 51 51 51
split_gain=119319 32068.3 31902 6898.17 6862.51 5581.1 4932.86 1133.64 1107.31 918.273 838.289 683.31 451.069 170.092 161.871 128.274 116.088 110.37 102.237 87.4054 67.2732 33.6908 24.2782 23.8198 18.9424 17.3176 16.0348 15.1058 14.8398 11.8522
threshold=14.500000000000002 2.5000000000000004 49.500000000000007 6.5000000000000009 27.500000000000004 76.000000000000014 1.0000000180025095e-35 36.500000000000007 9.5000000000000018 20.500000000000004 4.5000000000000009 1.5000000000000002 58.500000000000007 11.500000000000002 3.5000000000000004 17.500000000000004 43.500000000000007 23.500000000000004 31.500000000000004 7.5000000000000009 5.5000000000000009 13.500000000000002 8.5000000000000018 40.500000000000007 15.500000000000002 10.500000000000002 29.500000000000004 25.500000000000004 33.500000000000007 19.500000000000004
decision_type=2 2 2 2 2 2 2 2 2 2 2 2 2 2 2 2 2 2 2 2 2 2 2 2 2 2 2 2 2 2
left_child=1 6 4 10 9 12 -1 18 19 15 14 -8 -4 25 -3 24 23 -11 26 -5 -12 -15 -21 -9 -2 -10 -6 -19 -20 -17
right_child=2 3 5 8 7 -7 11 16 13 17 20 -13 -14 21 -16 29 -18 27 28 22 -22 -23 -24 -25 -26 -27 -28 -29 -30 -31
leaf_value=-0.022362183034420016 0.62418227195739751 0.10677797794342042 2.2371040496826171 0.2789648532867432 1.2003263021770278 4.324930826822917 0.020684538781642916 1.6439953400538518 0.40810503959655764 0.91874253323203647 0.19287141561508181 0.063731259107589727 2.8440417925516766 0.50996320362174363 0.14982470273971557 0.77287009432074738 1.95975949605306 1.0339746627807618 1.3618338758295234 0.32201159000396729 0.23591814041137696 0.58246626853942873 0.3650583028793335 1.7871881666637603 0.68924711676668537 0.45115175247192385 1.2928109220556312 1.1143133401870728 1.4678633227492826 0.83731889724731445
leaf_weight=134274 71 2420 25 445 38 27 14160 26 177 95 874 4986 24 229 1367 89 30 50 22 343 621 89 212 21 121 198 37 44 33 42
leaf_count=134274 71 2420 25 445 38 27 14160 26 177 95 874 4986 24 229 1367 89 30 50 22 343 621 89 212 21 121 198 37 44 33 42
internal_value=0 -0.00605723 1.22207 0.203649 1.01612 3.1705 -0.0155912 1.502 0.379306 0.819683 0.147347 0.0318948 2.53438 0.476456 0.122317 0.71724 1.80607 0.994757 1.32189 0.311982 0.210752 0.530255 0.338455 1.70798 0.665187 0.430834 1.24595 1.07158 1.42545 0.793533
internal_weight=0 160395 795 6975 719 76 153420 207 1693 512 5282 19146 49 693 3787 323 77 189 130 1000 1495 318 555 47 192 375 75 94 55 131
internal_count=161190 160395 795 6975 719 76 153420 207 1693 512 5282 19146 49 693 3787 323 77 189 130 1000 1495 318 555 47 192 375 75 94 55 131
is_linear=0
shrinkage=0.1


Tree=9
num_leaves=31
num_cat=0
split_feature=51 51 51 51 51 51 52 51 51 51 51 51 51 51 51 51 51 51 51 51 51 51 51 51 51 51 51 51 51 51
split_gain=96648.4 25975.4 25855.7 6267.63 5587.51 3995.62 3817.97 949.492 935.395 896.923 679.014 553.481 358.517 154.547 138.47 131.115 120.874 78.1491 71.8799 70.7983 54.4913 31.8009 22.4211 20.7793 19.6654 15.3824 13.436 10.2411 9.67059 8.49811
threshold=14.500000000000002 2.5000000000000004 52.500000000000007 28.500000000000004 6.5000000000000009 1.0000000180025095e-35 39.500000000000007 37.500000000000007 21.500000000000004 9.5000000000000018 4.5000000000000009 1.5000000000000002 64.000000000000014 17.500000000000004 12.500000000000002 3.5000000000000004 45.500000000000007 24.500000000000004 32.500000000000007 7.5000000000000009 5.5000000000000009 10.500000000000002 19.500000000000004 41.500000000000007 8.5000000000000018 16.500000000000004 26.500000000000004 22.500000000000004 11.500000000000002 30.500000000000004
decision_type=2 2 2 2 2 2 2 2 2 2 2 2 2 2 2 2 2 2 2 2 2 2 2 2 2 2 2 2 2 2
left_child=1 5 3 8 10 -1 12 18 13 19 15 -7 -4 25 21 -3 23 27 29 -6 -12 -11 -15 -9 -21 -2 -19 -10 -23 -5
right_child=2 4 6 7 9 11 -8 16 17 14 20 -13 -14 22 -16 -17 -18 26 -20 24 -22 28 -24 -25 -26 -27 -28 -29 -30 -31
leaf_value=-0.020125964283943178 0.57912074675926795 0.096100181341171265 2.1870278618552468 1.1234363227054991 0.25106837749481203 0.018616084754467011 4.1085790634155277 1.5201322197914124 0.82997293472290046 0.36729452610015872 0.17358428239822388 0.0573581337928772 2.7516867098600972 0.69558308794257351 0.50180543339441697 0.13484222888946534 1.8435327990301724 0.97123156189918525 1.3265444962874704 0.2898104190826416 0.21232633590698244 0.40603656768798829 0.76877689120135739 1.6480152589303476 0.3285524845123291 0.63965415954589844 1.0491818800205139 0.90068256060282392 0.44122281074523928 1.1953162594845421
leaf_weight=134274 130 2420 22 29 445 14160 21 24 33 177 874 4986 23 89 189 1367 29 48 46 343 621 198 79 27 212 62 41 54 129 38
leaf_count=134274 130 2420 22 29 445 14160 21 24 33 177 874 4986 23 89 189 1367 29 48 46 343 621 198 79 27 212 62 41 54 129 38
internal_value=0 -0.00545151 1.09987 0.928273 0.183284 -0.0140321 2.99521 1.41692 0.752325 0.341376 0.132612 0.0287053 2.47563 0.659957 0.42881 0.110085 1.68053 0.941259 1.23029 0.280784 0.189677 0.401437 0.730002 1.58784 0.304609 0.598668 1.00714 0.873862 0.419917 1.1642
internal_weight=0 160395 795 729 6975 153420 66 193 536 1693 5282 19146 45 360 693 3787 80 176 113 1000 1495 504 168 51 555 192 89 87 327 67
internal_count=161190 160395 795 729 6975 153420 66 193 536 1693 5282 19146 45 360 693 3787 80 176 113 1000 1495 504 168 51 555 192 89 87 327 67
is_linear=0
shrinkage=0.1


Tree=10
num_leaves=31
num_cat=0
split_feature=51 51 51 51 51 51 52 51 51 51 51 51 51 51 51 51 51 51 51 51 51 51 51 51 51 51 51 51 51 36
split_gain=78290 22200.3 20164.3 5047.69 4786.65 3314.94 2763.22 1040.67 784.24 718.726 612.229 300.555 198.077 113.451 101.207 86.9821 71.735 67.1373 64.8169 53.0802 38.4437 23.5493 16.4088 12.2514 11.3621 10.2447 8.33776 7.58602 6.73437 3.97352
threshold=15.500000000000002 3.5000000000000004 56.500000000000007 30.500000000000004 1.0000000180025095e-35 8.5000000000000018 39.500000000000007 1.5000000000000002 22.500000000000004 39.500000000000007 5.5000000000000009 11.500000000000002 2.5000000000000004 18.500000000000004 46.500000000000007 6.5000000000000009 26.500000000000004 35.500000000000007 4.5000000000000009 13.500000000000002 9.5000000000000018 7.5000000000000009 20.500000000000004 32.500000000000007 10.500000000000002 24.500000000000004 16.500000000000004 28.500000000000004 12.500000000000002 1005.8571428571429
decision_type=2 2 2 2 2 2 2 2 2 2 2 2 2 2 2 2 2 2 2 2 2 2 2 2 2 2 2 2 2 2
left_child=1 4 3 8 -1 10 -4 -6 13 17 18 20 -9 26 29 -12 25 23 -3 28 -7 -17 -15 -5 -22 -10 -2 -18 -13 -11
right_child=2 5 6 9 7 11 -8 12 16 14 15 19 -14 22 -16 21 27 -19 -20 -21 24 -23 -24 -25 -26 -27 -28 -29 -30 -31
leaf_value=-0.018113368749618532 0.54209556579589846 0.12135801315307618 2.3366752942403157 1.0757846280148156 0.016754476726055147 0.29569723606109621 3.8026792907714846 0.051622319221496585 0.81061433774453617 1.4493112365404766 0.19109369516372682 0.39710052013397218 0.086490166187286388 0.66159767936257763 1.7084130316069635 0.22596154212951661 0.9442636862033752 1.2974401508058822 0.15622584819793703 0.48726853460073472 0.33056507110595706 0.26082937717437743 0.72697775432041711 1.160496674814532 0.36543290615081792 0.87410841584205634 0.58884162991135214 1.0110927252933897 0.43167624473571781 1.509663486480713
leaf_weight=134274 59 1367 36 38 14160 212 20 4986 54 24 621 129 2420 85 33 445 41 28 874 160 177 343 70 31 198 48 108 29 100 20
leaf_count=134274 59 1367 36 38 14160 212 20 4986 54 24 621 129 2420 85 33 445 41 28 874 160 177 343 70 31 198 48 108 29 100 20
internal_value=0 -0.00468125 1.03754 0.884742 -0.0110897 0.211205 2.86025 0.0326411 0.721598 1.34792 0.167431 0.374908 0.0630158 0.629512 1.57603 0.219082 0.893993 1.16684 0.134957 0.443076 0.329733 0.241139 0.691124 1.11384 0.348975 0.840494 0.572327 0.97195 0.412199 1.47674
internal_weight=0 160466 724 668 155840 4626 56 21566 494 174 3650 976 7406 322 77 1409 172 97 2241 389 587 788 155 69 375 102 167 70 229 44
internal_count=161190 160466 724 668 155840 4626 56 21566 494 174 3650 976 7406 322 77 1409 172 97 2241 389 587 788 155 69 375 102 167 70 229 44
is_linear=0
shrinkage=0.1


Tree=11
num_leaves=31
num_cat=0
split_feature=51 51 51 51 51 51 51 51 51 51 51 51 51 51 51 51 51 51 51 51 51 51 51 51 51 51 51 51 51 51
split_gain=63432.1 17067.6 17038.8 4623.76 3662.95 2621.52 2356.39 703.32 677.566 586.804 445.501 363.139 111.895 101.215 89.4726 86.0248 69.4011 46.4508 41.5243 35.7517 18.9202 14.594 12.9024 11.0903 10.7384 10.129 9.20327 8.12515 5.45484 3.54566
threshold=14.500000000000002 56.500000000000007 2.5000000000000004 29.500000000000004 6.5000000000000009 1.0000000180025095e-35 84.500000000000014 21.500000000000004 38.500000000000007 9.5000000000000018 4.5000000000000009 1.5000000000000002 45.500000000000007 17.500000000000004 11.500000000000002 3.5000000000000004 25.500000000000004 7.5000000000000009 33.500000000000007 5.5000000000000009 13.500000000000002 19.500000000000004 8.5000000000000018 41.500000000000007 23.500000000000004 15.500000000000002 10.500000000000002 27.500000000000004 12.500000000000002 31.500000000000004
decision_type=2 2 2 2 2 2 2 2 2 2 2 2 2 2 2 2 2 2 2 2 2 2 2 2 2 2 2 2 2 2
left_child=2 3 5 7 10 -1 -3 13 18 17 15 -7 23 25 26 -4 24 -6 29 -12 28 -15 -19 -10 -9 -2 -11 -18 -16 -5
right_child=1 6 4 8 9 11 -8 16 12 14 19 -13 -14 21 20 -17 27 22 -20 -21 -22 -23 -24 -25 -26 -27 -28 -29 -30 -31
leaf_value=-0.01630203127861023 0.45512509346008301 2.0907270272572833 0.077841144800186168 0.94195647626309786 0.20336539745330812 0.015079028904438019 3.4445167160034185 0.69057900165689412 1.2384817713782903 0.29750857353210453 0.14060326814651489 0.04646008610725403 1.5210255378331894 0.56362544124046066 0.35739045143127446 0.10922220945358277 0.81262578747489234 0.23474645614624023 1.0900680164958156 0.17198432683944703 0.42531223297119142 0.62267734853527212 0.26612751483917235 1.3353767465662074 0.75381770706176754 0.50270381801384534 0.32888963222503664 0.87575124941374127 0.38850860595703129 0.99265113310380415
leaf_weight=134274 71 36 2420 37 445 14160 20 58 21 177 874 4986 39 89 129 1367 44 343 43 621 89 79 212 27 50 121 198 38 100 22
leaf_count=134274 71 36 2420 37 445 14160 20 58 21 177 874 4986 39 89 129 1367 44 343 43 621 89 79 212 27 50 121 198 38 100 22
internal_value=0 0.891041 -0.00441645 0.763492 0.148443 -0.011366 2.57422 0.616861 1.1902 0.276445 0.107416 0.0232513 1.39521 0.534709 0.347166 0.0891688 0.772519 0.227435 1.01533 0.153638 0.386186 0.591394 0.246733 1.29299 0.719856 0.48511 0.314078 0.841879 0.370979 0.96086
internal_weight=0 795 160395 739 6975 153420 56 550 189 1693 5282 19146 87 360 693 3787 190 1000 102 1495 318 168 555 48 108 192 375 82 229 59
internal_count=161190 795 160395 739 6975 153420 56 550 189 1693 5282 19146 87 360 693 3787 190 1000 102 1495 318 168 555 48 108 192 375 82 229 59
is_linear=0
shrinkage=0.1


Tree=12
num_leaves=31
num_cat=0
split_feature=51 51 51 51 51 51 52 51 51 51 51 51 51 51 51 51 51 51 51 51 51 51 51 51 51 51 51 51 51 51
split_gain=51380 13824.8 13801.5 3745.65 2966.99 2123.43 2068.05 625.673 497.383 475.312 360.856 294.142 90.6348 81.9844 72.4728 69.6801 43.8735 41.4187 37.6252 28.9589 15.3254 11.8212 10.451 8.98316 8.69811 8.20586 7.45465 5.80876 4.41842 3.24636
threshold=14.500000000000002 56.500000000000007 2.5000000000000004 28.500000000000004 6.5000000000000009 1.0000000180025095e-35 39.500000000000007 38.500000000000007 21.500000000000004 9.5000000000000018 4.5000000000000009 1.5000000000000002 45.500000000000007 17.500000000000004 11.500000000000002 3.5000000000000004 33.500000000000007 25.500000000000004 7.5000000000000009 5.5000000000000009 13.500000000000002 19.500000000000004 8.5000000000000018 41.500000000000007 23.500000000000004 16.500000000000004 10.500000000000002 30.500000000000004 12.500000000000002 27.500000000000004
decision_type=2 2 2 2 2 2 2 2 2 2 2 2 2 2 2 2 2 2 2 2 2 2 2 2 2 2 2 2 2 2
left_child=2 3 5 8 10 -1 -3 16 13 18 15 -7 23 25 26 -4 27 24 -6 -12 28 -15 -20 -9 -10 -2 -11 -5 -16 -19
right_child=1 6 4 7 9 11 -8 12 17 14 19 -13 -14 21 20 -17 -18 29 22 -21 -22 -23 -24 -25 -26 -27 -28 -29 -30 -31
leaf_value=-0.014671827852725984 0.42232167317317082 1.8638508319854736 0.070057034492492676 0.81898395932953927 0.18302884101867678 0.013571125268936158 3.1321112346649169 1.1146336192176456 0.6215211079038423 0.26775770187377929 0.12654293775558473 0.041814079880714422 1.3689230014116338 0.5072629076711247 0.32165141105651857 0.098299986124038702 0.98106121240660205 0.73136316971345394 0.21127181053161623 0.15478589534759524 0.38278102874755859 0.56040959056419659 0.23951475620269777 1.2018390726160122 0.67843592357635496 0.46653418540954594 0.29600064754486083 0.87663110819729884 0.34965775012969974 0.77708468437194833
leaf_weight=134274 130 36 2420 29 445 14160 20 21 58 177 874 4986 39 89 129 1367 43 44 343 621 89 79 212 27 50 62 198 44 100 24
leaf_count=134274 130 36 2420 29 445 14160 20 21 58 177 874 4986 39 89 129 1367 43 44 343 621 89 79 212 27 50 62 198 44 100 24
internal_value=0 0.801936 -0.00397481 0.687143 0.133599 -0.0102294 2.3168 1.05297 0.548593 0.2488 0.0966745 0.0209262 1.25569 0.481238 0.31245 0.0802519 0.90093 0.686364 0.204691 0.138275 0.347567 0.532255 0.22206 1.16369 0.647871 0.436599 0.28267 0.85373 0.333881 0.7475
internal_weight=0 795 160395 739 6975 153420 56 203 536 1693 5282 19146 87 360 693 3787 116 176 1000 1495 318 168 555 48 108 192 375 73 229 68
internal_count=161190 795 160395 739 6975 153420 56 203 536 1693 5282 19146 87 360 693 3787 116 176 1000 1495 318 168 555 48 108 192 375 73 229 68
is_linear=0
shrinkage=0.1


Tree=13
num_leaves=31
num_cat=0
split_feature=51 51 51 51 51 51 51 51 51 51 51 51 51 51 51 51 51 51 51 51 51 51 51 51 51 51 51 51 51 51
split_gain=41620.2 11795.3 11050.5 3464.7 2543.82 1759.9 599.583 553.055 392.978 287.586 191.853 105.266 80.3866 61.9982 61.0373 58.9125 50.2396 34.4464 24.9328 16.7494 9.82787 9.36979 9.18022 8.51009 6.73801 6.23254 4.23629 4.16286 2.06702 1.49356
threshold=15.500000000000002 3.5000000000000004 68.000000000000014 32.500000000000007 1.0000000180025095e-35 7.5000000000000009 22.500000000000004 1.5000000000000002 43.500000000000007 10.500000000000002 5.5000000000000009 2.5000000000000004 27.500000000000004 49.500000000000007 18.500000000000004 12.500000000000002 36.500000000000007 4.5000000000000009 8.5000000000000018 6.5000000000000009 13.500000000000002 29.500000000000004 25.500000000000004 20.500000000000004 40.500000000000007 9.5000000000000018 16.500000000000004 11.500000000000002 14.500000000000002 24.500000000000004
decision_type=2 2 2 2 2 2 2 2 2 2 2 2 2 2 2 2 2 2 2 2 2 2 2 2 2 2 2 2 2 2
left_child=1 4 3 6 -1 10 14 -6 16 18 17 -9 22 -10 26 27 -5 -3 -7 -12 -17 -14 29 -16 -18 -20 -2 -11 -22 -8
right_child=2 5 -4 8 7 9 12 11 13 15 19 -13 21 -15 23 20 24 -19 25 -21 28 -23 -24 -25 -26 -27 -28 -29 -30 -31
leaf_value=-0.01320464462041855 0.39538347721099854 0.08846998810768128 2.4399435790809427 0.85534681907066945 0.012214013189077378 0.19014462232589724 0.5918902017452099 0.037632670998573307 1.1515626112620037 0.26640059947967532 0.1393073081970215 0.063051331043243411 0.7089240400414718 1.3427772252987593 0.48280513595132268 0.31469197273254396 0.97484778624314539 0.11388864517211915 0.21556327342987061 0.16472595930099487 0.34450292587280273 0.77399030811381797 0.65822685848582874 0.52988924026489259 1.0510062989734468 0.24098193645477295 0.42870411078135179 0.28948626518249515 0.36738042831420903 0.62331953048706057
leaf_weight=134274 59 1367 37 39 14160 343 54 4986 30 198 621 2420 38 39 85 100 26 874 212 445 89 53 44 70 21 177 108 129 71 21
leaf_count=134274 59 1367 37 39 14160 343 54 4986 30 198 621 2420 38 39 85 100 26 874 212 445 89 53 44 70 21 177 108 129 71 21
internal_value=0 -0.00341319 0.756494 0.665828 -0.00808438 0.153949 0.54461 0.0237954 1.08188 0.251613 0.114995 0.0459385 0.676068 1.25964 0.458877 0.303756 0.939252 0.0983834 0.209799 0.149918 0.339284 0.74682 0.621964 0.504069 1.00888 0.227129 0.416932 0.275508 0.354655 0.60069
internal_weight=0 160466 724 687 155840 4626 532 21566 155 1319 3307 7406 210 69 322 587 86 2241 732 1066 260 91 119 155 47 389 167 327 160 75
internal_count=161190 160466 724 687 155840 4626 532 21566 155 1319 3307 7406 210 69 322 587 86 2241 732 1066 260 91 119 155 47 389 167 327 160 75
is_linear=0
shrinkage=0.1


Tree=14
num_leaves=31
num_cat=0
split_feature=51 51 51 51 51 51 51 51 51 51 51 51 51 51 51 51 51 51 51 51 51 51 51 51 51 51 51 51 51 51
split_gain=33712.4 9554.22 9010.62 2937.38 2060.5 1425.52 511.684 447.975 316.967 232.944 155.401 85.2657 72.1176 59.0949 49.4402 47.7191 33.7689 27.9016 20.1956 13.567 9.59774 7.96057 7.43599 6.89316 5.04836 3.43139 3.37192 1.67429 1.54892 1.34292
threshold=15.500000000000002 3.5000000000000004 71.500000000000014 33.500000000000007 1.0000000180025095e-35 7.5000000000000009 22.500000000000004 1.5000000000000002 43.500000000000007 10.500000000000002 5.5000000000000009 2.5000000000000004 27.500000000000004 50.500000000000007 18.500000000000004 12.500000000000002 37.500000000000007 4.5000000000000009 8.5000000000000018 6.5000000000000009 30.500000000000004 13.500000000000002 25.500000000000004 20.500000000000004 9.5000000000000018 16.500000000000004 11.500000000000002 14.500000000000002 28.500000000000004 23.500000000000004
decision_type=2 2 2 2 2 2 2 2 2 2 2 2 2 2 2 2 2 2 2 2 2 2 2 2 2 2 2 2 2 2
left_child=1 4 3 6 -1 10 14 -6 16 18 17 -9 22 -10 25 26 -5 -3 -7 -12 28 -17 29 -16 -20 -2 -11 -23 -14 -8
right_child=2 5 -4 8 7 9 12 11 13 15 19 -13 20 -15 23 21 -18 -19 24 -21 -22 27 -24 -25 -26 -27 -28 -29 -30 -31
leaf_value=-0.011884180456399919 0.35584514141082768 0.0796229898929596 2.2700976722380695 0.78874039053916933 0.010992611944675447 0.17113015651702881 0.5216975212097168 0.033869403600692752 1.044435030041319 0.23976054191589358 0.12537657022476198 0.056746196746826176 0.6284838199615479 1.2262593660599146 0.43452465842751897 0.283222770690918 0.91868051767349257 0.10249978303909302 0.19400695562362671 0.14825336933135988 0.71045957045121633 0.31005263328552246 0.5924041910604998 0.4769003295898438 0.21688375473022461 0.38583369829036573 0.26053764820098879 0.33064236640930178 0.66282762659007111 0.55008327960968018
leaf_weight=134274 59 1367 34 40 14160 343 25 4986 33 198 621 2420 24 39 85 100 40 874 212 445 44 89 44 70 177 108 129 71 29 50
leaf_count=134274 59 1367 34 40 14160 343 25 4986 33 198 621 2420 24 39 85 100 40 874 212 445 44 89 44 70 177 108 129 71 29 50
internal_value=0 -0.00307187 0.680844 0.602533 -0.00727594 0.138554 0.492864 0.0214158 0.990706 0.226452 0.103496 0.0413447 0.611936 1.14292 0.412989 0.273381 0.85371 0.088545 0.188819 0.134926 0.675936 0.305356 0.559768 0.453662 0.204416 0.375239 0.247957 0.319189 0.647276 0.540621
internal_weight=0 160466 724 690 155840 4626 538 21566 152 1319 3307 7406 216 72 322 587 80 2241 732 1066 97 260 119 155 389 167 327 160 53 75
internal_count=161190 160466 724 690 155840 4626 538 21566 152 1319 3307 7406 216 72 322 587 80 2241 732 1066 97 260 119 155 389 167 327 160 53 75
is_linear=0
shrinkage=0.1


Tree=15
num_leaves=31
num_cat=0
split_feature=51 51 51 51 51 51 51 51 51 51 51 51 51 51 51 51 51 51 51 51 51 51 51 51 51 51 51 51 54 51
split_gain=27307 7738.92 7298.6 2379.85 1669 1154.67 470.943 362.86 207.065 188.685 125.874 69.0652 58.4115 54.4175 38.6525 33.8754 22.6003 21.9087 16.3584 10.9893 8.43108 7.82725 6.96695 6.44806 6.40953 4.08917 4.01824 2.73126 2.43285 1.45029
threshold=15.500000000000002 3.5000000000000004 71.500000000000014 34.500000000000007 1.0000000180025095e-35 7.5000000000000009 23.500000000000004 1.5000000000000002 47.500000000000007 10.500000000000002 5.5000000000000009 2.5000000000000004 28.500000000000004 19.500000000000004 12.500000000000002 40.500000000000007 4.5000000000000009 56.500000000000007 8.5000000000000018 6.5000000000000009 17.500000000000004 26.500000000000004 21.500000000000004 13.500000000000002 31.500000000000004 9.5000000000000018 43.500000000000007 11.500000000000002 6.5000000000000009 24.500000000000004
decision_type=2 2 2 2 2 2 2 2 2 2 2 2 2 2 2 2 2 2 2 2 2 2 2 2 2 2 2 2 2 2
left_child=1 4 3 6 -1 10 13 -6 15 18 16 -9 21 20 27 28 -3 -10 -7 -12 -2 29 -15 -16 -14 -20 -17 -11 -5 -8
right_child=2 5 -4 8 7 9 12 11 17 14 19 -13 24 22 23 26 -18 -19 25 -21 -22 -23 -24 -25 -26 -27 -28 -29 -30 -31
leaf_value=-0.010695762932300568 0.32956902291163925 0.071660691499710091 2.0430879024898303 0.73694307700447415 0.0098933503031730652 0.15401713848114015 0.48717875480651857 0.030482462048530581 1.0179628437963026 0.21578447818756105 0.11283891201019287 0.051071578264236452 0.60828824510761337 0.40844578561903555 0.25490050315856932 0.85403762090773816 0.092249804735183724 1.1503004854375667 0.17460625171661379 0.13342802524566652 0.37011648054873009 0.55892415511898885 0.45408667038226946 0.28727040097117423 0.66296068784352902 0.19519536495208742 0.9158995628356934 0.2344838857650757 0.78402028083801278 0.51550270318984992
leaf_weight=134274 121 1367 34 23 14160 343 29 4986 29 198 621 2420 51 79 100 21 874 22 212 445 89 41 58 160 37 177 21 129 21 48
leaf_count=134274 121 1367 34 23 14160 343 29 4986 29 198 621 2420 51 79 100 21 874 22 212 445 89 41 58 160 37 177 21 129 21 48
internal_value=0 -0.00276469 0.61276 0.54228 -0.00654835 0.124699 0.449843 0.0192743 0.915404 0.203807 0.0931463 0.0372102 0.569614 0.378739 0.246043 0.82073 0.0796905 1.07505 0.169937 0.121434 0.346753 0.523629 0.427768 0.27482 0.631276 0.183975 0.884969 0.223161 0.759412 0.504835
internal_weight=0 160466 724 690 155840 4626 553 21566 137 1319 3307 7406 206 347 587 86 2241 51 732 1066 210 118 137 260 88 389 42 327 44 77
internal_count=161190 160466 724 690 155840 4626 553 21566 137 1319 3307 7406 206 347 587 86 2241 51 732 1066 210 118 137 260 88 389 42 327 44 77
is_linear=0
shrinkage=0.1


Tree=16
num_leaves=31
num_cat=0
split_feature=51 51 51 51 51 51 51 51 51 51 51 51 51 51 51 51 51 51 51 51 51 51 51 51 51 51 51 51 51 51
split_gain=22125.2 6158.17 5939.75 2232.22 1276.09 914.069 343.658 301.668 203.995 155.337 126.619 51.7919 49.0198 40.206 31.516 30.8608 29.995 16.1964 12.4659 7.36783 6.26324 5.98878 4.65732 4.49881 4.44994 3.20898 2.62356 1.90199 1.09719 0.73303
threshold=14.500000000000002 73.500000000000014 2.5000000000000004 31.500000000000004 6.5000000000000009 1.0000000180025095e-35 22.500000000000004 43.500000000000007 9.5000000000000018 4.5000000000000009 1.5000000000000002 18.500000000000004 52.500000000000007 35.500000000000007 26.500000000000004 11.500000000000002 3.5000000000000004 7.5000000000000009 5.5000000000000009 16.500000000000004 13.500000000000002 39.500000000000007 29.500000000000004 8.5000000000000018 20.500000000000004 10.500000000000002 24.500000000000004 12.500000000000002 15.500000000000002 17.500000000000004
decision_type=2 2 2 2 2 2 2 2 2 2 2 2 2 2 2 2 2 2 2 2 2 2 2 2 2 2 2 2 2 2
left_child=2 3 5 6 9 -1 11 13 17 16 -7 19 -9 -5 26 25 -4 -6 -11 28 27 -15 -16 -19 -13 -10 -8 -17 -2 -21
right_child=1 -3 4 7 8 10 14 12 15 18 -12 24 -14 21 22 20 -18 23 -20 29 -22 -23 -24 -25 -26 -27 -28 -29 -30 -31
leaf_value=-0.0096261866390705119 0.26885108947753905 1.9079240589372575 0.045964419841766357 0.60159887050060523 0.12008522748947144 0.0089040152728557583 0.43182115996325465 0.85808442592620848 0.17567583322525027 0.083024823665618905 0.027434217929840091 0.35216661228853119 1.0201356874193466 0.69515040261404859 0.5092059863697399 0.21103549003601074 0.064494621753692624 0.13861542940139771 0.10155502557754517 0.30547010898590088 0.25032031536102295 0.76115736078332974 0.55509194941134066 0.15714563131332399 0.38621406759534566 0.19420603513717652 0.46395243704319 0.229410457611084 0.28730370998382571 0.32213099002838136
leaf_weight=134274 71 31 2420 47 445 14160 54 40 177 874 4986 85 35 28 55 129 1367 343 621 62 89 27 37 212 70 198 48 100 59 46
leaf_count=134274 71 31 2420 47 445 14160 54 40 177 874 4986 85 35 28 55 129 1367 343 621 62 89 27 37 212 70 198 48 100 59 46
internal_value=0 0.526243 -0.00260833 0.47018 0.0876438 -0.0067115 0.376318 0.781462 0.163195 0.0634281 0.0137296 0.322559 0.933708 0.669516 0.485221 0.204893 0.0526533 0.134298 0.090722 0.293263 0.227809 0.727554 0.52766 0.145694 0.367543 0.18546 0.446942 0.219059 0.277226 0.312566
internal_weight=0 795 160395 764 6975 153420 587 177 1693 5282 19146 393 75 102 194 693 3787 1000 1495 238 318 55 92 555 155 375 102 229 130 108
internal_count=161190 795 160395 764 6975 153420 587 177 1693 5282 19146 393 75 102 194 693 3787 1000 1495 238 318 55 92 555 155 375 102 229 130 108
is_linear=0
shrinkage=0.1


Tree=17
num_leaves=31
num_cat=0
split_feature=51 51 51 51 51 51 51 51 51 51 51 51 51 51 51 51 51 51 51 51 51 51 51 51 51 51 51 51 51 51
split_gain=17921.4 4988.11 4811.2 1808.98 1033.63 740.396 321.164 205.656 165.236 125.823 102.561 41.9515 36.9801 34.5513 24.9973 24.296 23.1056 13.1191 10.0973 6.49243 5.96794 5.07323 4.17526 3.94612 3.64404 3.60446 2.59928 2.37517 1.54061 0.888726
threshold=14.500000000000002 73.500000000000014 2.5000000000000004 32.500000000000007 6.5000000000000009 1.0000000180025095e-35 22.500000000000004 46.500000000000007 9.5000000000000018 4.5000000000000009 1.5000000000000002 18.500000000000004 37.500000000000007 27.500000000000004 11.500000000000002 3.5000000000000004 58.500000000000007 7.5000000000000009 5.5000000000000009 42.500000000000007 16.500000000000004 13.500000000000002 30.500000000000004 25.500000000000004 8.5000000000000018 20.500000000000004 10.500000000000002 34.500000000000007 12.500000000000002 15.500000000000002
decision_type=2 2 2 2 2 2 2 2 2 2 2 2 2 2 2 2 2 2 2 2 2 2 2 2 2 2 2 2 2 2
left_child=2 3 5 6 9 -1 11 12 17 15 -7 20 27 23 26 -4 -9 -6 -11 -14 29 28 -15 -8 -19 -13 -10 -5 -16 -2
right_child=1 -3 4 7 8 10 13 16 14 18 -12 25 19 22 21 -17 -18 24 -20 -21 -22 -23 -24 -25 -26 -27 -28 -29 -30 -31
leaf_value=-0.0086635679006576548 0.24196598529815674 1.7171316414110125 0.041367977857589722 0.54465182849339078 0.10807670354843141 0.0080136142671108253 0.39406955273946132 0.82577901137502574 0.15810824632644654 0.074722337722778323 0.024690794944763186 0.31694994702058682 0.66014182120561604 0.47173542256625195 0.18993194103240968 0.058045160770416264 0.95856919527053841 0.12475388050079346 0.091399520635604858 0.72815549468994145 0.28130976535655833 0.22528829574584963 0.51516970333300138 0.43179217468608511 0.14143106937408448 0.34759266580854148 0.17478542327880861 0.5902708892822266 0.20646939277648926 0.2585733413696289
leaf_weight=134274 71 31 2420 21 445 14160 75 38 177 874 4986 85 32 53 129 1367 20 343 621 25 108 89 38 44 212 70 198 25 100 59
leaf_count=134274 71 31 2420 21 445 14160 75 38 177 874 4986 85 32 53 129 1367 20 343 621 25 108 89 38 44 212 70 198 25 100 59
internal_value=0 0.473618 -0.0023475 0.423162 0.0788795 -0.00604035 0.343651 0.720956 0.146875 0.0570853 0.0123567 0.290303 0.636145 0.443488 0.184403 0.047388 0.871569 0.120868 0.0816498 0.689972 0.263936 0.205028 0.489873 0.408017 0.131124 0.330789 0.166914 0.569445 0.197154 0.249503
internal_weight=0 795 160395 764 6975 153420 603 161 1693 5282 19146 393 103 210 693 3787 58 1000 1495 57 238 318 91 119 555 155 375 46 229 130
internal_count=161190 795 160395 764 6975 153420 603 161 1693 5282 19146 393 103 210 693 3787 58 1000 1495 57 238 318 91 119 555 155 375 46 229 130
is_linear=0
shrinkage=0.1


Tree=18
num_leaves=31
num_cat=0
split_feature=51 51 51 51 51 51 51 51 51 51 51 51 51 51 51 51 51 51 51 51 51 51 51 51 51 51 51 51 51 51
split_gain=14516.3 4040.37 3897.07 1465.68 837.241 599.72 225.608 198.574 133.841 101.916 83.0745 32.9432 30.7158 27.6014 23.3543 20.2478 19.6797 10.6264 8.17885 6.88427 4.55551 4.10931 3.94089 3.29806 3.20791 2.95167 2.1971 2.10541 1.27742 1.24789
threshold=14.500000000000002 73.500000000000014 2.5000000000000004 31.500000000000004 6.5000000000000009 1.0000000180025095e-35 21.500000000000004 44.500000000000007 9.5000000000000018 4.5000000000000009 1.5000000000000002 36.500000000000007 26.500000000000004 56.500000000000007 17.500000000000004 11.500000000000002 3.5000000000000004 7.5000000000000009 5.5000000000000009 49.500000000000007 23.500000000000004 13.500000000000002 40.500000000000007 19.500000000000004 28.500000000000004 8.5000000000000018 15.500000000000002 10.500000000000002 33.500000000000007 12.500000000000002
decision_type=2 2 2 2 2 2 2 2 2 2 2 2 2 2 2 2 2 2 2 2 2 2 2 2 2 2 2 2 2 2
left_child=2 3 5 6 9 -1 14 11 17 16 -7 28 20 19 26 27 -4 -6 -11 -9 -8 29 -13 -16 -14 -19 -2 -10 -5 -17
right_child=1 -3 4 7 8 10 12 13 15 18 -12 22 24 -15 23 21 -18 25 -20 -21 -22 -23 -24 -25 -26 -27 -28 -29 -30 -31
leaf_value=-0.0077972106635570528 0.21776938438415527 1.5454184795579602 0.037231180071830752 0.47628207206726075 0.097269034385681158 0.0072122521698474891 0.33132819636114719 0.68129089189612346 0.14229742288589478 0.067250108718872076 0.02222171574831009 0.57686853042015673 0.40659378796088985 0.85073709106445328 0.26958764831671556 0.1709387540817261 0.052240645885467535 0.1122784972190857 0.082259571552276617 0.76151120901107794 0.36843691770132492 0.2027594566345215 0.63093501159123022 0.29765976380698289 0.44416266983630615 0.12728796005249024 0.23992856612875443 0.15730688571929932 0.50739064216613772 0.1858224630355835
leaf_weight=134274 71 31 2420 22 445 14160 58 23 177 874 4986 26 41 25 89 129 1367 343 621 20 77 89 28 79 51 212 121 198 33 100
leaf_count=134274 71 31 2420 22 445 14160 58 23 177 874 4986 26 41 25 89 129 1367 343 621 20 77 89 28 79 51 212 121 198 33 100
internal_value=0 0.426256 -0.00211275 0.380845 0.0709915 -0.00543632 0.304788 0.63308 0.132188 0.0513768 0.011121 0.549421 0.38286 0.767181 0.255559 0.165963 0.0426492 0.108781 0.0734848 0.718603 0.352494 0.184525 0.604903 0.282788 0.42742 0.118012 0.231734 0.150222 0.494947 0.177438
internal_weight=0 795 160395 764 6975 153420 587 177 1693 5282 19146 109 227 68 360 693 3787 1000 1495 43 135 318 54 168 92 555 192 375 55 229
internal_count=161190 795 160395 764 6975 153420 587 177 1693 5282 19146 109 227 68 360 693 3787 1000 1495 43 135 318 54 168 92 555 192 375 55 229
is_linear=0
shrinkage=0.1


Tree=19
num_leaves=31
num_cat=0
split_feature=51 51 51 51 51 51 51 51 51 51 51 51 51 9 51 51 51 51 51 51 51 51 51 51 51 51 51 51 51 51
split_gain=11758.2 3316.03 3156.63 1361.39 678.165 485.774 272.54 124.623 108.411 82.5522 67.2904 37.7535 27.7461 19.9115 16.4007 15.9406 13.1828 8.60742 6.62487 5.29818 4.03473 3.52773 3.32855 2.39085 2.31758 1.70538 1.01079 0.717444 0.534204 0.522242
threshold=14.500000000000002 79.500000000000014 2.5000000000000004 35.500000000000007 6.5000000000000009 1.0000000180025095e-35 22.500000000000004 49.500000000000007 9.5000000000000018 4.5000000000000009 1.5000000000000002 28.500000000000004 18.500000000000004 400.64631648969618 11.500000000000002 3.5000000000000004 42.500000000000007 7.5000000000000009 5.5000000000000009 25.500000000000004 16.500000000000004 31.500000000000004 13.500000000000002 8.5000000000000018 20.500000000000004 10.500000000000002 12.500000000000002 26.500000000000004 30.500000000000004 15.500000000000002
decision_type=2 2 2 2 2 2 2 2 2 2 2 2 2 2 2 2 2 2 2 2 2 2 2 2 2 2 2 2 2 2
left_child=2 3 5 6 9 -1 12 16 17 15 -7 19 20 -9 25 -4 -5 -6 -11 -8 29 28 26 -19 -14 -10 -16 -21 -13 -2
right_child=1 -3 4 7 8 10 11 13 14 18 -12 21 24 -15 22 -17 -18 23 -20 27 -22 -23 -24 -25 -26 -27 -28 -29 -30 -31
leaf_value=-0.0070174902677536018 0.19599245786666872 1.5668645457081174 0.033508062362670898 0.52256399316990632 0.087542128562927257 0.0064910270273685457 0.31905587418874104 0.70564312067898838 0.128067684173584 0.060525095462799078 0.019999544322490695 0.39083221863056056 0.25690909413730395 0.83209271430969245 0.15384486913681031 0.047016578912734988 0.60177272369987089 0.10105065107345582 0.074033612012863168 0.34494140148162844 0.22792267755225853 0.43772389635126646 0.18248351812362673 0.11455916166305542 0.28148018905094696 0.14157619476318359 0.16724021434783937 0.36593440800178345 0.41149687767028809 0.20872316360473633
leaf_weight=134274 71 23 2420 47 445 14160 75 33 177 874 4986 29 85 20 129 1367 38 343 621 27 108 47 89 212 70 198 100 41 22 59
leaf_count=134274 71 23 2420 47 445 14160 75 33 177 874 4986 29 85 20 129 1367 38 343 621 27 108 47 89 212 70 198 100 41 22 59
internal_value=0 0.383631 -0.00190147 0.348379 0.0638924 -0.00489269 0.286424 0.633014 0.118969 0.0462391 0.0100089 0.370149 0.235081 0.75336 0.149367 0.0383843 0.557975 0.0979032 0.0661363 0.337384 0.213638 0.41796 0.166072 0.106211 0.268006 0.1352 0.159694 0.357599 0.399746 0.20177
internal_weight=0 795 160395 772 6975 153420 634 138 1693 5282 19146 241 393 53 693 3787 85 1000 1495 143 238 98 318 555 155 375 229 68 51 130
internal_count=161190 795 160395 772 6975 153420 634 138 1693 5282 19146 241 393 53 693 3787 85 1000 1495 143 238 98 318 555 155 375 229 68 51 130
is_linear=0
shrinkage=0.1


Tree=20
num_leaves=31
num_cat=0
split_feature=51 51 51 51 51 51 51 51 51 51 51 51 51 51 51 51 51 51 51 51 51 51 51 51 51 51 51 51 51 49
split_gain=9524.15 2685.99 2556.87 1102.73 549.314 393.477 220.758 100.945 87.8133 66.8673 54.5052 30.5803 22.4744 17.1998 13.2846 12.9119 10.6781 6.97201 5.36614 4.29153 3.26813 2.85746 2.69612 1.93659 1.87724 1.38136 0.818741 0.584845 0.50419 0.49863
threshold=14.500000000000002 79.500000000000014 2.5000000000000004 35.500000000000007 6.5000000000000009 1.0000000180025095e-35 22.500000000000004 49.500000000000007 9.5000000000000018 4.5000000000000009 1.5000000000000002 28.500000000000004 18.500000000000004 58.500000000000007 11.500000000000002 3.5000000000000004 42.500000000000007 7.5000000000000009 5.5000000000000009 25.500000000000004 16.500000000000004 31.500000000000004 13.500000000000002 8.5000000000000018 20.500000000000004 10.500000000000002 12.500000000000002 27.500000000000004 21.500000000000004 1.0000000180025095e-35
decision_type=2 2 2 2 2 2 2 2 2 2 2 2 2 2 2 2 2 2 2 2 2 2 2 2 2 2 2 2 2 2
left_child=2 3 5 6 9 -1 12 16 17 15 -7 19 20 -9 25 -4 29 -6 -11 -8 -2 -13 26 -19 -14 -10 -16 -21 -26 -5
right_child=1 -3 4 7 8 10 11 13 14 18 -12 21 24 -15 22 -17 -18 23 -20 27 -22 -23 -24 -25 28 -27 -28 -29 -30 -31
leaf_value=-0.0063157409429550173 0.18159320858808667 1.4101781066345132 0.030157256126403811 0.48128749890760941 0.078787916898727425 0.0058419246226549155 0.28715027999877929 0.61773570251464849 0.11526091098785402 0.054472583532333377 0.017999589443206787 0.35977174861758365 0.23121818093692556 0.73185275282178619 0.13846038579940798 0.042314922809600836 0.5415954539650365 0.09094558358192445 0.066630250215530401 0.31498977487737484 0.2051304097528811 0.39395152507944314 0.16423516273498537 0.10310324430465699 0.2453171730041504 0.12741857767105103 0.15051618814468384 0.33439607620239259 0.26231870651245121 0.46064525794982913
leaf_weight=134274 130 23 2420 22 445 14160 75 25 177 874 4986 51 85 28 129 1367 38 343 621 44 108 47 89 212 37 198 100 24 33 25
leaf_count=134274 130 23 2420 22 445 14160 75 25 177 874 4986 51 85 28 129 1367 38 343 621 44 108 47 89 212 37 198 100 24 33 25
internal_value=0 0.345268 -0.00171132 0.313541 0.0575031 -0.00440342 0.257781 0.569713 0.107072 0.0416152 0.00900802 0.333134 0.211573 0.678024 0.13443 0.0345458 0.502177 0.0881128 0.0595227 0.303646 0.192274 0.376164 0.149465 0.0955896 0.241205 0.12168 0.143725 0.321839 0.253332 0.470308
internal_weight=0 795 160395 772 6975 153420 634 138 1693 5282 19146 241 393 53 693 3787 85 1000 1495 143 238 98 318 555 155 375 229 68 70 47
internal_count=161190 795 160395 772 6975 153420 634 138 1693 5282 19146 241 393 53 693 3787 85 1000 1495 143 238 98 318 555 155 375 229 68 70 47
is_linear=0
shrinkage=0.1


Tree=21
num_leaves=31
num_cat=0
split_feature=51 51 50 51 51 51 51 51 51 53 51 51 51 51 51 51 51 51 51 51 51 51 51 51 51 51 51 51 51 51
split_gain=7714.73 2185.2 2163.4 847.29 471.375 325.802 145.473 102.482 75.2532 105.903 98.2351 53.1246 35.5507 19.5061 19.3622 15.4682 10.804 8.74274 6.38298 4.6201 3.1037 3.06913 2.47038 1.89826 1.7726 1.37113 1.1549 0.771388 0.530752 0.428992
threshold=15.500000000000002 3.5000000000000004 99.500000000000014 35.500000000000007 1.0000000180025095e-35 7.5000000000000009 23.500000000000004 1.5000000000000002 49.500000000000007 10.500000000000002 64.000000000000014 10.500000000000002 5.5000000000000009 2.5000000000000004 29.500000000000004 19.500000000000004 12.500000000000002 42.500000000000007 4.5000000000000009 8.5000000000000018 6.5000000000000009 26.500000000000004 17.500000000000004 21.500000000000004 13.500000000000002 32.500000000000007 9.5000000000000018 11.500000000000002 24.500000000000004 14.500000000000002
decision_type=2 2 2 2 2 2 2 2 2 2 2 2 2 2 2 2 2 2 2 2 2 2 2 2 2 2 2 2 2 2
left_child=1 4 3 6 -1 12 15 -6 17 -10 -11 19 18 -9 21 22 27 -5 -3 -7 -14 28 -2 -17 -18 -16 -21 -13 -8 -26
right_child=2 5 -4 8 7 11 14 13 9 10 -12 16 20 -15 25 23 24 -19 -20 26 -22 -23 -24 -25 29 -27 -28 -29 -30 -31
leaf_value=-0.0056841667741537099 0.17471425119510367 0.038083431124687199 1.3512796247005463 0.42239846042964768 0.0052577320486307151 0.081851023435592654 0.25840749740600588 0.016199630498886109 0.41611204317637851 0.53671843528747565 0.85014322161674505 0.11467671394348145 0.059967225790023809 0.027141529321670535 0.33369319622333232 0.21726992371716081 0.13546457290649414 0.48819462458292651 0.04902532696723938 0.092792922258377084 0.070909124612808225 0.30001787749203768 0.19666269977440998 0.24121391898707342 0.1478116512298584 0.36026343607133438 0.10373482704162598 0.12461434602737427 0.27554199993610384 0.1582338809967041
leaf_weight=134274 121 1367 20 46 14160 343 29 4986 21 20 20 198 621 2420 52 79 100 36 874 212 445 55 89 57 89 31 177 129 48 71
leaf_count=134274 121 1367 20 46 14160 343 29 4986 21 20 20 198 621 2420 52 79 100 36 874 212 445 55 89 57 89 31 177 129 48 71
internal_value=0 -0.0014695 0.325697 0.296561 -0.00348006 0.066262 0.241173 0.0102431 0.513853 0.59796 0.693431 0.108283 0.0495018 0.019775 0.305772 0.201032 0.130694 0.451285 0.0423508 0.0903116 0.0645349 0.281976 0.184016 0.227305 0.145909 0.343617 0.0977716 0.118597 0.269089 0.152437
internal_weight=0 160466 724 704 155840 4626 561 21566 143 61 40 1319 3307 7406 215 346 587 82 2241 732 1066 132 210 136 260 83 389 327 77 160
internal_count=161190 160466 724 704 155840 4626 561 21566 143 61 40 1319 3307 7406 215 346 587 82 2241 732 1066 132 210 136 260 83 389 327 77 160
is_linear=0
shrinkage=0.1


Tree=22
num_leaves=31
num_cat=0
split_feature=51 51 51 51 51 51 51 51 51 51 51 51 51 51 51 51 51 51 51 51 51 51 51 51 51 51 51 51 51 51
split_gain=6248.93 1904.87 1770.01 674.725 381.814 263.9 117.847 83.0107 71.7489 43.0309 28.7961 16.6694 15.7999 15.2426 12.1537 8.75121 5.17021 3.74228 3.35473 2.514 2.29199 2.04684 1.51106 1.4358 0.935471 0.746891 0.657933 0.624824 0.474054 0.429908
threshold=15.500000000000002 84.500000000000014 3.5000000000000004 35.500000000000007 1.0000000180025095e-35 7.5000000000000009 23.500000000000004 1.5000000000000002 56.500000000000007 10.500000000000002 5.5000000000000009 44.500000000000007 2.5000000000000004 30.500000000000004 18.500000000000004 12.500000000000002 4.5000000000000009 8.5000000000000018 26.500000000000004 6.5000000000000009 21.500000000000004 39.500000000000007 49.500000000000007 13.500000000000002 9.5000000000000018 16.500000000000004 33.500000000000007 11.500000000000002 19.500000000000004 24.500000000000004
decision_type=2 2 2 2 2 2 2 2 2 2 2 2 2 2 2 2 2 2 2 2 2 2 2 2 2 2 2 2 2 2
left_child=2 3 4 6 -1 10 14 -6 11 17 16 21 -9 18 25 27 -4 -7 29 -12 28 -5 -13 -17 -19 -2 -15 -11 -16 -8
right_child=1 -3 5 8 7 9 13 12 -10 15 19 22 -14 26 20 23 -18 24 -20 -21 -22 -23 -24 -25 -26 -27 -28 -29 -30 -31
leaf_value=-0.0051157500594854362 0.152220094203949 1.2554808181524277 0.034275087714195254 0.36643822618893218 0.004731958732008934 0.073665922880172735 0.23256676197052004 0.014579667150974274 0.58323767781257629 0.10320904254913331 0.053970503807067874 0.45000551265218985 0.024427376687526703 0.30619654005224056 0.18249486684799196 0.12191811800003052 0.044122794270515443 0.083513629436492931 0.27242760675294059 0.063818216323852539 0.21509022404407632 0.40294884022544414 0.48758890151977541 0.13719286412000656 0.093361341953277596 0.16621110328921565 0.32651165008544925 0.11215291023254395 0.19554293397106703 0.24798779785633088
leaf_weight=134274 59 20 1367 28 14160 343 29 4986 36 198 621 23 2420 44 43 100 874 212 70 445 58 34 20 160 177 108 25 129 79 48
leaf_count=134274 59 20 1367 28 14160 343 29 4986 36 198 621 23 2420 44 43 100 874 212 70 445 58 34 20 160 177 108 25 129 79 48
internal_value=0 0.293127 -0.00132255 0.265788 -0.00313205 0.0596358 0.216795 0.00921882 0.461411 0.0974549 0.0445516 0.419642 0.0177975 0.274783 0.180698 0.117625 0.0381157 0.0812804 0.256584 0.0580814 0.198724 0.38646 0.467486 0.131318 0.0879945 0.161268 0.313557 0.106737 0.190944 0.24218
internal_weight=0 724 160466 704 155840 4626 563 21566 141 1319 3307 105 7406 216 347 587 2241 732 147 1066 180 62 43 260 389 167 69 327 122 77
internal_count=161190 724 160466 704 155840 4626 563 21566 141 1319 3307 105 7406 216 347 587 2241 732 147 1066 180 62 43 260 389 167 69 327 122 77
is_linear=0
shrinkage=0.1


Tree=23
num_leaves=31
num_cat=0
split_feature=51 60 51 51 51 51 51 35 51 51 51 51 51 51 51 51 51 51 53 51 51 51 51 51 51 51 51 51 51 51
split_gain=5063.4 1772.01 1358.51 537.522 291.66 209.11 77.3743 63.3352 46.5199 35.536 28.9663 26.8111 42.7157 21.0369 11.3797 6.979 6.8619 6.67785 5.89642 3.70521 2.85179 1.7318 1.35666 1.26021 1.13958 1.04096 1.02918 0.81422 0.734112 0.725547
threshold=14.500000000000002 18.500000000000004 2.5000000000000004 31.500000000000004 6.5000000000000009 1.0000000180025095e-35 22.500000000000004 186.25000000000003 9.5000000000000018 4.5000000000000009 1.5000000000000002 38.500000000000007 68.000000000000014 47.500000000000007 18.500000000000004 11.500000000000002 3.5000000000000004 27.500000000000004 14.500000000000002 7.5000000000000009 5.5000000000000009 16.500000000000004 12.500000000000002 34.500000000000007 24.500000000000004 42.500000000000007 8.5000000000000018 20.500000000000004 10.500000000000002 30.500000000000004
decision_type=2 2 2 2 2 2 2 2 2 2 2 2 2 2 2 2 2 2 2 2 2 2 2 2 2 2 2 2 2 2
left_child=2 3 5 6 9 -1 14 -5 19 16 -7 23 13 25 21 28 -4 24 -15 -6 -11 -2 -17 -9 -8 -13 -21 -16 -10 -19
right_child=1 -3 4 7 8 10 17 11 15 20 -12 12 -14 18 27 22 -18 29 -20 26 -22 -23 -24 -25 -26 -27 -28 -29 -30 -31
leaf_value=-0.0046041753143072134 0.13242608142453571 1.1581261600766863 0.021984638273715974 0.53658995117459984 0.057436394691467288 0.0042587630450725555 0.20593087763156534 0.28494035215938796 0.084025210142135626 0.039710515737533571 0.013121700286865235 0.35162789630889896 0.24863540671765805 0.5013552081584931 0.16851764356388765 0.10093762874603272 0.03084757924079895 0.24871718929364134 0.4263325523246419 0.066299325227737432 0.048573455214500433 0.14958999046572932 0.114239830251724 0.31486923396587374 0.22575696520507338 0.38048567581176762 0.075162267684936529 0.18308156166757858 0.092888146638870239 0.27038104534149171
leaf_weight=134274 129 21 2420 21 445 14160 53 34 177 874 4986 25 20 20 85 129 1367 52 22 343 621 108 189 24 64 25 212 70 198 22
leaf_count=134274 129 21 2420 21 445 14160 53 34 177 874 4986 25 20 20 85 129 1367 52 22 343 621 108 189 24 64 25 212 70 198 22
internal_value=0 0.251747 -0.00124779 0.227155 0.0419145 -0.00321009 0.179456 0.37275 0.0780336 0.0303375 0.00656685 0.352511 0.381089 0.409883 0.154027 0.097946 0.0251839 0.231646 0.462058 0.0642343 0.043392 0.140248 0.108844 0.297325 0.216776 0.366057 0.0696848 0.175095 0.0887048 0.255158
internal_weight=0 795 160395 774 6975 153420 583 191 1693 5282 19146 170 112 92 392 693 3787 191 42 1000 1495 237 318 58 117 50 555 155 375 74
internal_count=161190 795 160395 774 6975 153420 583 191 1693 5282 19146 170 112 92 392 693 3787 191 42 1000 1495 237 318 58 117 50 555 155 375 74
is_linear=0
shrinkage=0.1


Tree=24
num_leaves=31
num_cat=0
split_feature=51 50 51 51 51 51 51 37 29 51 51 51 51 51 51 51 51 51 51 51 51 51 51 51 51 51 51 51 51 51
split_gain=4101.35 1492.96 1100.39 452.302 236.245 169.379 96.8989 75.6478 39.0409 44.4033 37.6811 29.0603 28.7842 23.4627 14.2779 9.8922 6.9326 5.65299 5.55814 3.00122 2.30995 1.79453 1.72496 1.22956 1.21815 0.833639 0.605787 0.594631 0.427054 0.316985
threshold=14.500000000000002 99.500000000000014 2.5000000000000004 36.500000000000007 6.5000000000000009 1.0000000180025095e-35 22.500000000000004 182.22222222222226 1702.5000000000002 58.500000000000007 9.5000000000000018 48.500000000000007 4.5000000000000009 1.5000000000000002 28.500000000000004 17.500000000000004 45.500000000000007 11.500000000000002 3.5000000000000004 7.5000000000000009 5.5000000000000009 25.500000000000004 19.500000000000004 31.500000000000004 13.500000000000002 8.5000000000000018 16.500000000000004 10.500000000000002 21.500000000000004 27.500000000000004
decision_type=2 2 2 2 2 2 2 2 2 2 2 2 2 2 2 2 2 2 2 2 2 2 2 2 2 2 2 2 2 2
left_child=2 3 5 6 12 -1 15 -5 9 16 19 -10 18 -7 21 26 -9 27 -4 -6 -14 -8 -17 -16 -19 -21 -2 -12 -24 -23
right_child=1 -3 4 7 10 13 14 8 11 -11 17 -13 20 -15 23 22 -18 24 -20 25 -22 29 28 -25 -26 -27 -28 -29 -30 -31
leaf_value=-0.0041437577456235886 0.11842964821136914 1.0796249767858537 0.01978617459535599 0.55039419293403624 0.051692754030227661 0.0038328867405653002 0.18716413092613221 0.31453639738487477 0.33422426342964173 0.16952750800643118 0.075622683763504034 0.50469505429267891 0.035739463567733769 0.01180953085422516 0.23504326057434086 0.14371509190355794 0.38700689727609811 0.094100831871990559 0.027762821316719057 0.059669393301010135 0.043716108798980718 0.20455317741090601 0.1584547623803344 0.25671047990972345 0.10788722038269044 0.06764604449272156 0.13044241666793824 0.083599328994750977 0.17214825153350832 0.21884019374847413
leaf_weight=134274 130 20 2420 20 445 14160 75 33 20 20 177 20 874 4986 50 89 22 229 1367 343 621 44 79 55 89 212 62 198 32 24
leaf_count=134274 130 20 2420 20 445 14160 75 33 20 20 177 20 874 4986 50 89 22 229 1367 343 621 44 79 55 89 212 62 198 32 24
internal_value=0 0.226572 -0.00112301 0.204558 0.037723 -0.00288908 0.169471 0.370894 0.339676 0.297125 0.0702302 0.41946 0.0273037 0.00591016 0.218391 0.138522 0.343525 0.0881514 0.0226655 0.0578108 0.0390528 0.197831 0.154087 0.246393 0.0979593 0.0627163 0.122309 0.0798344 0.162402 0.209596
internal_weight=0 795 160395 775 6975 153420 640 135 115 75 1693 40 5282 19146 248 392 55 693 3787 1000 1495 143 200 105 318 555 192 375 111 68
internal_count=161190 795 160395 775 6975 153420 640 135 115 75 1693 40 5282 19146 248 392 55 693 3787 1000 1495 143 200 105 318 555 192 375 111 68
is_linear=0
shrinkage=0.1


Tree=25
num_leaves=31
num_cat=0
split_feature=51 59 51 51 51 51 51 37 51 51 51 51 51 61 51 51 51 51 51 51 51 51 51 32 51 51 51 51 51 51
split_gain=3322.87 1337.64 940.256 306.576 202.912 139.999 58.1512 55.6344 44.1153 30.3028 22.7362 15.3034 13.6551 8.39996 8.39672 8.06891 6.00081 4.71162 2.74766 1.9888 1.44016 1.33604 1.0026 0.94521 0.757369 0.497147 0.4564 0.414017 0.398977 0.299711
threshold=15.500000000000002 26.500000000000004 3.5000000000000004 35.500000000000007 1.0000000180025095e-35 7.5000000000000009 23.500000000000004 115.00000000000001 1.5000000000000002 68.000000000000014 10.500000000000002 5.5000000000000009 45.500000000000007 3.5000000000000004 2.5000000000000004 30.500000000000004 18.500000000000004 12.500000000000002 4.5000000000000009 8.5000000000000018 27.500000000000004 6.5000000000000009 22.500000000000004 1358.9285714285718 13.500000000000002 9.5000000000000018 24.500000000000004 17.500000000000004 20.500000000000004 11.500000000000002
decision_type=2 2 2 2 2 2 2 2 2 2 2 2 2 2 2 2 2 2 2 2 2 2 2 2 2 2 2 2 2 2
left_child=2 3 4 6 -1 11 16 -5 -6 12 19 18 23 -14 -10 20 27 29 -4 -7 26 -13 28 -9 -19 -21 -8 -2 -18 -12
right_child=1 -3 5 7 8 10 15 9 14 -11 17 21 13 -15 -16 -17 22 24 -20 25 -22 -23 -24 -25 -26 -27 -28 -29 -30 -31
leaf_value=-0.003729381784796715 0.1147467734416326 1.0201896791905165 0.024986538290977481 0.46214026990144152 0.0034495979547500611 0.053702455759048466 0.16671714494968284 0.28901093006134032 0.010628578066825867 0.18007366575300696 0.075239396095275884 0.039344498515129091 0.38204981423914436 0.30178055085919125 0.017807558178901672 0.22612001602200493 0.13660824298858643 0.088892239332199099 0.032165518403053282 0.060881435871124268 0.19803433015066035 0.046523478627204899 0.16283668279647828 0.26131226420402526 0.099986039772629751 0.068060415983200076 0.18183970488607884 0.12590495347976685 0.146870797181475 0.081433779001235967
leaf_weight=134274 120 20 1367 23 14160 343 29 28 4986 20 198 621 32 22 2420 69 84 100 874 212 51 445 25 22 160 177 64 46 69 129
leaf_count=134274 120 20 1367 23 14160 343 29 28 4986 20 198 621 32 22 2420 69 84 100 874 212 51 445 25 22 160 177 64 46 69 129
internal_value=0 0.213752 -0.000964418 0.190842 -0.00228327 0.0434648 0.156941 0.319297 0.00672052 0.292802 0.0710105 0.0324781 0.31448 0.349348 0.0129744 0.198003 0.131516 0.0856718 0.0277864 0.0592534 0.18453 0.0423414 0.14427 0.276824 0.0957192 0.064148 0.177124 0.117839 0.141236 0.0776831
internal_weight=0 724 160466 704 155840 4626 557 147 21566 124 1319 3307 104 54 7406 213 344 587 2241 732 144 1066 178 50 260 389 93 166 153 327
internal_count=161190 724 160466 704 155840 4626 557 147 21566 124 1319 3307 104 54 7406 213 344 587 2241 732 144 1066 178 50 260 389 93 166 153 327
is_linear=0
shrinkage=0.1


Tree=26
num_leaves=31
num_cat=0
split_feature=51 60 51 51 51 51 53 13 51 28 51 51 51 58 2 51 51 51 51 51 51 51 51 51 51 51 51 51 47 51
split_gain=2693.08 1216.98 798.659 219.521 164.358 128.643 48.0058 111.346 35.7334 35.2734 31.5923 21.022 13.6697 9.05392 11.5824 6.91776 6.80134 5.13727 2.98669 2.63628 2.22561 2.06973 1.08645 0.808608 0.788797 0.533392 0.402689 0.317399 0.282596 0.256242
threshold=16.500000000000004 18.500000000000004 3.5000000000000004 33.500000000000007 1.0000000180025095e-35 8.5000000000000018 7.5000000000000009 48360.317153838776 1.5000000000000002 252.14285714285717 22.500000000000004 5.5000000000000009 12.500000000000002 15.500000000000002 9.5000000000000018 44.500000000000007 2.5000000000000004 28.500000000000004 6.5000000000000009 10.500000000000002 4.5000000000000009 19.500000000000004 14.500000000000002 7.5000000000000009 24.500000000000004 30.500000000000004 9.5000000000000018 17.500000000000004 6.5000000000000009 26.500000000000004
decision_type=2 2 2 2 2 2 2 2 2 2 2 2 2 2 2 2 2 2 2 2 2 2 2 2 2 2 2 2 2 2
left_child=2 3 4 10 -1 11 9 -8 -6 -5 21 20 19 14 15 -9 -10 24 -13 26 -4 27 -14 -20 -12 -19 -7 -2 29 -26
right_child=1 -3 5 6 8 12 7 13 16 -11 17 18 22 -15 -16 -17 -18 25 23 -21 -22 -23 -24 -25 28 -27 -28 -29 -30 -31
leaf_value=-0.0033564437180757523 0.10592349767684937 0.96906186670064942 0.022487884759902956 0.10097921287471599 0.0031046383082866669 0.054793292284011842 0.52049058505467005 0.23906582593917847 0.0095657199621200575 0.26256967238017492 0.15013270693005257 0.035410049557685855 0.083344931734932792 0.32089586366306655 0.18928222967230757 0.31669850620356477 0.016026802361011505 0.18181159722485715 0.041871130466461182 0.069914745354871133 0.028948965668678286 0.12935714966484479 0.095221669811468859 0.048332211375236515 0.16286077698071799 0.19946726668964734 0.061254376173019411 0.1152431707368808 0.15512587785720827 0.17515931576490404
leaf_weight=134274 62 20 1367 22 14160 212 21 24 4986 35 53 621 189 22 23 22 2420 28 445 327 874 112 130 343 36 44 177 89 20 32
leaf_count=134274 62 20 1367 22 14160 212 21 24 4986 35 53 621 189 22 23 22 2420 28 445 327 874 112 130 343 36 44 177 89 20 32
internal_value=0 0.200824 -0.000831945 0.177003 -0.00205494 0.0398493 0.274911 0.312933 0.00604847 0.200201 0.142241 0.0310254 0.0709675 0.265035 0.247224 0.276194 0.011677 0.170868 0.0405963 0.0632965 0.0250077 0.119057 0.088185 0.0446835 0.15977 0.192601 0.0577332 0.111417 0.165575 0.168648
internal_weight=0 665 160525 645 155840 4685 169 112 21566 57 476 3650 1035 91 69 46 7406 213 1409 716 2241 263 319 788 141 72 389 151 88 68
internal_count=161190 665 160525 645 155840 4685 169 112 21566 57 476 3650 1035 91 69 46 7406 213 1409 716 2241 263 319 788 141 72 389 151 88 68
is_linear=0
shrinkage=0.1


Tree=27
num_leaves=31
num_cat=0
split_feature=51 51 51 51 51 51 51 51 51 51 51 4 51 51 51 51 51 51 51 59 51 51 46 51 51 39 51 51 51 51
split_gain=2181.39 1042.58 646.914 198.834 133.13 104.201 39.8512 32.4797 28.944 17.0278 11.0724 7.98769 5.50908 5.00604 4.66837 3.54758 2.41922 2.13539 1.80274 1.53582 0.880023 0.872762 0.81758 0.664691 0.654973 0.569531 0.406625 0.326178 0.257093 0.242766
threshold=16.500000000000004 84.500000000000014 3.5000000000000004 37.500000000000007 1.0000000180025095e-35 8.5000000000000018 58.500000000000007 24.500000000000004 1.5000000000000002 5.5000000000000009 12.500000000000002 10.713383838383841 2.5000000000000004 47.500000000000007 30.500000000000004 19.500000000000004 6.5000000000000009 10.500000000000002 4.5000000000000009 10.500000000000002 14.500000000000002 22.500000000000004 1.0000000180025095e-35 27.500000000000004 7.5000000000000009 645.357142857143 33.500000000000007 9.5000000000000018 17.500000000000004 11.500000000000002
decision_type=2 2 2 2 2 2 2 2 2 2 2 2 2 2 2 2 2 2 2 2 2 2 2 2 2 2 2 2 2 2
left_child=2 3 4 7 -1 9 11 15 -6 18 17 13 -10 25 19 28 -11 27 -4 23 -12 -17 26 -9 -18 -5 -16 -7 -2 -19
right_child=1 -3 5 6 8 10 -8 14 12 16 20 -13 -14 -15 22 21 24 29 -20 -21 -22 -23 -24 -25 -26 -27 -28 -29 -30 -31
leaf_value=-0.0030207993462681771 0.095331150293350223 0.89180597558617591 0.02023909538984299 0.22334888994693758 0.0027941744774580002 0.049313965439796451 0.36982768346225064 0.14841873353382326 0.0086091481149196628 0.031869041919708255 0.07501043809784784 0.1893778375349939 0.014424121379852295 0.29104350713583144 0.17920283794403077 0.11642143236739295 0.037684017419815065 0.060723984241485597 0.026054069399833679 0.12784418211877346 0.085699505897668699 0.13189876372063603 0.16360484815779186 0.16549462616443633 0.04349898993968964 0.24598906517028807 0.1953707665205002 0.055128937959671026 0.10371885110488099 0.06629892587661744
leaf_weight=134274 62 20 1367 20 14160 212 31 53 4986 621 189 24 2420 26 35 112 445 198 874 25 130 54 21 40 343 25 28 177 89 129
leaf_count=134274 62 20 1367 20 14160 212 31 53 4986 621 189 24 2420 26 35 112 445 198 874 25 130 54 21 40 343 25 28 177 89 129
internal_value=0 0.180742 -0.000748751 0.158693 -0.00184945 0.0358644 0.271377 0.131336 0.00544362 0.0279228 0.0638707 0.239252 0.0105093 0.25611 0.162675 0.111367 0.0365367 0.0569669 0.022507 0.149848 0.0793665 0.121456 0.180693 0.155763 0.0402152 0.235927 0.186389 0.0519599 0.100275 0.0629233
internal_weight=0 665 160525 645 155840 4685 126 519 21566 3650 1035 95 7406 71 202 317 1409 716 2241 118 319 166 84 93 788 45 63 389 151 327
internal_count=161190 665 160525 645 155840 4685 126 519 21566 3650 1035 95 7406 71 202 317 1409 716 2241 118 319 166 84 93 788 45 63 389 151 327
is_linear=0
shrinkage=0.1


Tree=28
num_leaves=31
num_cat=0
split_feature=51 53 51 51 51 51 37 51 51 51 51 51 51 51 4 51 51 56 51 51 51 4 51 51 51 51 49 51 41 51
split_gain=1766.93 920.759 524 129.186 107.836 84.4026 53.5611 45.9254 24.9641 23.4447 14.0408 13.7925 8.96868 4.46236 2.97606 2.87354 2.8618 2.32556 1.95957 1.72966 1.46022 0.899627 0.768249 0.706937 0.543898 0.530528 0.500185 0.264204 0.228991 0.336857
threshold=16.500000000000004 40.500000000000007 3.5000000000000004 36.500000000000007 1.0000000180025095e-35 8.5000000000000018 182.22222222222226 64.000000000000014 24.500000000000004 1.5000000000000002 46.500000000000007 5.5000000000000009 12.500000000000002 2.5000000000000004 7.0845959595959593 19.500000000000004 30.500000000000004 5.5000000000000009 6.5000000000000009 10.500000000000002 4.5000000000000009 7.0845959595959593 13.500000000000002 22.500000000000004 28.500000000000004 7.5000000000000009 12.500000000000002 9.5000000000000018 8.5000000000000018 15.500000000000002
decision_type=2 2 2 2 2 2 2 2 2 2 2 2 2 2 2 2 2 2 2 2 2 2 2 2 2 2 2 2 2 2
left_child=2 3 4 8 -1 11 -5 10 15 -6 14 20 19 -11 -8 -2 21 -12 -13 27 -4 24 -14 -17 -10 -20 -18 -7 29 -24
right_child=1 -3 5 6 9 12 7 -9 16 13 17 18 22 -15 -16 23 26 -19 25 -21 -22 -23 28 -25 -26 -27 -28 -29 -30 -31
leaf_value=-0.002718719281256199 0.090247407738144048 0.78434570794520175 0.018215185403823855 0.37899296700954443 0.0025147570297122004 0.044382569193840031 0.21798973289029352 0.07179584503173829 0.136468161055536 0.0077482335269451145 0.29941869803837368 0.028682139515876771 0.064167475700378424 0.012981709837913514 0.16855897357066474 0.10477929027484996 0.165852946468762 0.25177219092845915 0.033915615081787108 0.056630942252797828 0.023448662459850313 0.12042737967733826 0.073196426846764306 0.11870888758588721 0.15462401726029137 0.039149090647697449 0.14742982096970081 0.049616044759750372 0.064546010494232184 0.082345712184906009
leaf_weight=134274 151 23 1367 20 14160 212 29 22 66 4986 21 621 100 2420 21 112 56 20 445 327 874 28 143 54 22 343 20 177 20 56
leaf_count=134274 151 23 1367 20 14160 212 29 22 66 4986 21 621 100 2420 21 112 56 20 445 327 874 28 143 54 22 343 20 177 20 56
internal_value=0 0.162667 -0.000673875 0.140396 -0.0016645 0.0322779 0.228151 0.201453 0.117465 0.00489926 0.232799 0.0251305 0.0574837 0.00945834 0.197229 0.10023 0.145922 0.276176 0.032883 0.0512702 0.0202563 0.13604 0.0714298 0.109311 0.141007 0.0361936 0.161005 0.0467639 0.074746 0.0757711
internal_weight=0 665 160525 642 155840 4685 133 113 509 21566 91 3650 1035 7406 50 317 192 41 1409 716 2241 116 319 166 88 788 76 389 219 199
internal_count=161190 665 160525 642 155840 4685 133 113 509 21566 91 3650 1035 7406 50 317 192 41 1409 716 2241 116 319 166 88 788 76 389 219 199
is_linear=0
shrinkage=0.1


Tree=29
num_leaves=31
num_cat=0
split_feature=51 50 51 51 51 52 52 51 30 51 51 51 51 51 60 51 51 51 51 51 51 51 51 51 51 51 61 51 51 41
split_gain=1431.21 851.169 424.44 102.855 87.3468 75.0846 69.1659 68.3661 30.9132 30.235 19.0298 18.9902 11.172 7.26653 5.71099 3.61451 2.67407 2.41366 1.58725 1.51416 1.19946 1.18278 0.663346 0.450734 0.429727 0.332484 0.297052 0.36598 0.190963 0.185483
threshold=16.500000000000004 99.500000000000014 3.5000000000000004 36.500000000000007 1.0000000180025095e-35 41.500000000000007 31.500000000000004 8.5000000000000018 655.12500000000011 50.500000000000007 24.500000000000004 1.5000000000000002 5.5000000000000009 11.500000000000002 11.500000000000002 2.5000000000000004 20.500000000000004 29.500000000000004 6.5000000000000009 13.500000000000002 43.500000000000007 4.5000000000000009 9.5000000000000018 18.500000000000004 7.5000000000000009 26.500000000000004 7.5000000000000009 21.500000000000004 33.500000000000007 8.5000000000000018
decision_type=2 2 2 2 2 2 2 2 2 2 2 2 2 2 2 2 2 2 2 2 2 2 2 2 2 2 2 2 2 2
left_child=2 3 4 10 -1 6 8 12 -5 20 16 -6 21 22 17 -13 23 25 -14 -15 -10 -4 -9 -2 -20 -12 27 -18 -19 -21
right_child=1 -3 7 5 11 -7 -8 13 9 -11 14 15 18 19 -16 -17 26 28 24 29 -22 -23 -24 -25 -26 -27 -28 -29 -30 -31
leaf_value=-0.0024468474090099338 0.079167094054045511 0.78888427689671525 0.016393667459487917 0.089865914583206183 0.0022632813081145289 0.03033425064668769 0.40496940244920554 0.039944311976432806 0.17370439829497503 0.32517061544501269 0.11867071306982707 0.0069734096527099615 0.025813925266265872 0.055641219527440305 0.079979178085923197 0.011683538556098938 0.095607662200927743 0.14513254295695913 0.030524054169654848 0.068193990621135459 0.20466918999498543 0.021103796362876893 0.046942819499969486 0.088901680349440806 0.035234180092811589 0.13083883067394825 0.091168785840272909 0.1084884630122655 0.15516099518743054 0.058091409802436836
leaf_weight=134274 108 20 1367 20 14160 21 20 212 29 23 43 4986 621 229 20 2420 32 55 445 199 22 874 375 85 343 47 20 71 29 20
leaf_count=134274 108 20 1367 20 14160 21 20 212 29 23 43 4986 621 229 20 2420 32 55 445 199 22 874 375 85 343 47 20 71 29 20
internal_value=0 0.146401 -0.000606488 0.126479 -0.00149805 0.204095 0.236103 0.0290501 0.200174 0.229987 0.105933 0.00440933 0.0226175 0.0517353 0.130587 0.0085125 0.0907981 0.136404 0.0295947 0.0613265 0.187062 0.0182306 0.0444152 0.0834543 0.0325743 0.125025 0.102321 0.104487 0.148595 0.0672714
internal_weight=0 665 160525 645 155840 135 114 4685 94 74 510 21566 3650 1035 194 7406 316 174 1409 448 51 2241 587 193 788 90 123 103 84 219
internal_count=161190 665 160525 645 155840 135 114 4685 94 74 510 21566 3650 1035 194 7406 316 174 1409 448 51 2241 587 193 788 90 123 103 84 219
is_linear=0
shrinkage=0.1


Tree=30
num_leaves=31
num_cat=0
split_feature=51 52 51 51 51 51 52 14 9 51 51 51 51 51 30 52 51 59 37 51 51 51 51 51 4 51 51 51 19 51
split_gain=1159.54 760.054 310.578 104.992 66.5515 47.8376 34.0075 21.632 13.3862 22.0643 11.6123 10.5481 8.12951 6.62656 5.54844 7.37923 2.43339 1.94347 1.74412 1.67499 1.56978 0.915202 0.847634 0.652398 0.438043 0.40844 0.339673 0.235444 0.186403 0.175548
threshold=14.500000000000002 51.500000000000007 2.5000000000000004 30.500000000000004 6.5000000000000009 1.0000000180025095e-35 33.500000000000007 84150.873424267265 400.72613927151218 45.500000000000007 22.500000000000004 9.5000000000000018 4.5000000000000009 1.5000000000000002 679.64285714285722 25.500000000000004 17.500000000000004 10.500000000000002 1042.7777777777781 11.500000000000002 3.5000000000000004 26.500000000000004 7.5000000000000009 5.5000000000000009 10.713383838383841 19.500000000000004 13.500000000000002 8.5000000000000018 1351.6666666666667 10.500000000000002
decision_type=2 2 2 2 2 2 2 2 2 2 2 2 2 2 2 2 2 2 2 2 2 2 2 2 2 2 2 2 2 2
left_child=2 3 5 10 12 -1 7 -5 14 -10 16 22 20 -7 -9 18 28 21 -16 29 -4 -12 -6 -14 25 -18 -21 -24 -2 -13
right_child=1 -3 4 6 11 13 -8 8 9 -11 17 19 23 -15 15 -17 24 -19 -20 26 -22 -23 27 -25 -26 -27 -28 -29 -30 -31
leaf_value=-0.0022021627053618433 0.065768309838550032 0.72913164146244525 0.010515184700489046 0.054824812303889886 0.027471646666526794 0.0020369531586766246 0.25818033571439714 0.18462579087777573 0.14856003157554135 0.28131670213880994 0.10273987577202615 0.039960157871246342 0.01899341642856598 0.0062760688364505773 0.12721542949820389 0.075251423958688987 0.076688274053426889 0.081243789099877894 0.16083001982082021 0.050077096135335203 0.014754301309585572 0.11943813745792096 0.03171076476573944 0.023232533037662508 0.067154853790998462 0.086342702753841885 0.057357090644622126 0.03594987988471985 0.055568352937698365 0.044294208288192749
leaf_weight=134274 172 20 2420 22 445 14160 33 22 31 21 89 177 874 4986 29 20 78 31 33 229 1367 52 343 621 22 100 89 212 20 198
leaf_count=134274 172 20 2420 22 445 14160 33 22 31 21 89 177 874 4986 29 20 78 31 33 229 1367 52 343 621 22 100 89 212 20 198
internal_value=0 0.120472 -0.000597121 0.104765 0.0200405 -0.00153538 0.164941 0.147655 0.160746 0.202173 0.0822519 0.037294 0.0145103 0.0031409 0.140033 0.128069 0.0727471 0.103914 0.145107 0.0467758 0.0120454 0.108898 0.030723 0.0207543 0.0804668 0.0821121 0.0521146 0.03333 0.0647058 0.0422485
internal_weight=0 795 160395 775 6975 153420 211 178 156 52 564 1693 5282 19146 104 82 392 172 62 693 3787 141 1000 1495 200 178 318 555 192 375
internal_count=161190 795 160395 775 6975 153420 211 178 156 52 564 1693 5282 19146 104 82 392 172 62 693 3787 141 1000 1495 200 178 318 555 192 375
is_linear=0
shrinkage=0.1


Tree=31
num_leaves=31
num_cat=0
split_feature=53 51 51 51 35 52 51 51 51 51 29 51 51 6 51 51 51 51 60 51 51 4 51 51 51 51 0 51 51 51
split_gain=961.352 702.83 169.596 136.782 42.8237 41.0335 38.7482 20.4974 18.3262 18.0147 17.1806 16.638 5.36751 3.59604 3.27225 2.25041 2.12158 2.05032 1.983 1.93632 0.776022 0.502725 0.525036 0.377337 0.354124 0.323646 0.282647 0.336409 0.266256 0.220553
threshold=44.500000000000007 9.5000000000000018 2.5000000000000004 24.500000000000004 115.00000000000001 39.500000000000007 1.0000000180025095e-35 5.5000000000000009 15.500000000000002 37.500000000000007 676.21428571428589 56.500000000000007 1.5000000000000002 0.96385750293732564 3.5000000000000004 12.500000000000002 19.500000000000004 7.5000000000000009 10.500000000000002 30.500000000000004 4.5000000000000009 7.0845959595959593 21.500000000000004 6.5000000000000009 17.500000000000004 10.500000000000002 1100389.5000000002 28.500000000000004 33.500000000000007 13.500000000000002
decision_type=2 2 2 2 2 2 2 2 2 2 2 2 2 2 2 2 2 2 2 2 2 2 2 2 2 2 2 2 2 2
left_child=1 2 6 8 -5 9 -1 14 15 18 -11 13 -8 -12 -4 25 24 23 19 26 -16 22 -18 -9 -10 -3 -6 -28 -21 -17
right_child=-2 3 7 4 5 -7 12 17 16 10 11 -13 -14 -15 20 29 21 -19 -20 28 -22 -23 -24 -25 -26 -27 27 -29 -30 -31
leaf_value=-0.0019819464534521106 0.67655512417356178 0.035964143276214604 0.0094636663794517521 0.25988395891406318 0.09059434086084367 -0.023039024882018568 0.0018332578241825105 0.020909279584884644 0.060074223023800812 0.075452326834201819 0.16782471858538117 0.24890014653404557 0.005648462101817131 0.11567032486200333 0.013278870284557343 0.047178900241851812 0.074642488798674411 0.02999702654443346 0.079113451521033828 0.1175774714885614 0.017094075679779053 0.065337350467840824 0.086814666197106649 0.024724483489990234 0.068384195027056713 0.041272867764901681 0.099658837408389697 0.11436892639506946 0.12999358927049945 0.053165540918707843
leaf_weight=134268 21 177 2420 22 20 20 14160 621 121 20 39 24 4986 20 1367 100 68 555 23 39 874 24 74 445 89 327 53 22 31 160
leaf_count=134268 21 177 2420 22 20 20 14160 621 121 20 39 24 4986 20 1367 100 68 555 23 39 874 24 74 445 89 327 53 22 31 160
internal_value=0 -8.81538e-05 -0.000722372 0.0686709 0.125053 0.115515 -0.00138182 0.015382 0.0522013 0.125038 0.158653 0.178701 0.00282681 0.150145 0.0120134 0.0433066 0.0702746 0.0250681 0.106622 0.110456 0.0147668 0.0787233 0.0809857 0.0225019 0.0635961 0.0394085 0.101157 0.103974 0.123076 0.050863
internal_weight=0 161169 159696 1473 333 311 153414 6282 1140 291 103 83 19146 59 4661 764 376 1621 188 165 2241 166 142 1066 210 504 95 75 70 260
internal_count=161190 161169 159696 1473 333 311 153414 6282 1140 291 103 83 19146 59 4661 764 376 1621 188 165 2241 166 142 1066 210 504 95 75 70 260
is_linear=0
shrinkage=0.1


Tree=32
num_leaves=31
num_cat=0
split_feature=50 51 51 51 52 52 51 51 51 51 14 51 51 60 51 51 51 51 51 53 51 55 51 51 51 51 54 51 51 59
split_gain=823.68 575.867 137.422 115.552 53.1299 95.7052 31.4302 16.6029 15.825 13.9066 26.2009 11.4109 4.34768 2.77148 2.65052 2.53636 1.66076 1.46162 1.33348 0.789155 0.628577 0.56646 0.379441 0.311362 0.305643 0.288122 0.262332 0.262153 0.19071 0.169187
threshold=99.500000000000014 9.5000000000000018 2.5000000000000004 24.500000000000004 41.500000000000007 33.500000000000007 1.0000000180025095e-35 5.5000000000000009 16.500000000000004 37.500000000000007 98257.16187416621 49.500000000000007 1.5000000000000002 10.500000000000002 3.5000000000000004 12.500000000000002 7.5000000000000009 28.500000000000004 21.500000000000004 30.500000000000004 4.5000000000000009 3.5000000000000004 18.500000000000004 14.500000000000002 6.5000000000000009 33.500000000000007 11.500000000000002 10.500000000000002 8.5000000000000018 7.5000000000000009
decision_type=2 2 2 2 2 2 2 2 2 2 2 2 2 2 2 2 2 2 2 2 2 2 2 2 2 2 2 2 2 2
left_child=1 2 6 8 5 9 19 14 15 13 -11 21 -8 17 -4 27 24 -5 22 -1 -16 -12 -10 -17 -9 -19 -20 -3 -18 -25
right_child=-2 3 7 4 -6 -7 12 16 18 10 11 -13 -14 -15 20 23 28 25 26 -21 -22 -23 -24 29 -26 -27 -28 -29 -30 -31
leaf_value=-0.0017837516963481904 0.64170774500817063 0.032367730140686037 0.0085172995924949653 0.089066240640535754 -0.035647763853723355 0.33673348117619756 0.0016499320045113564 0.018818351626396182 0.05792140022472099 0.047765257006341766 0.13168377786874771 0.23060256320497263 0.0050836157053709037 0.062875795753105826 0.011950983852148057 0.044271059421004448 0.025539985299110415 0.10391054153442383 0.079874340060985455 -0.021170525359255926 0.015384668111801149 0.15406901607146631 0.066059895036894772 0.052212592932062409 0.022252035140991212 0.11532601425142 0.066800953038036834 0.037145579900216621 0.029355189204216005 0.042410207646233697
leaf_weight=134253 20 177 2420 73 22 20 14160 621 108 22 20 23 4986 23 1367 189 343 67 66 21 874 26 122 109 445 33 20 327 212 21
leaf_count=134253 20 177 2420 73 22 20 14160 621 108 22 20 23 4986 23 1367 189 343 67 66 21 874 26 122 109 445 33 20 327 212 21
internal_value=0 -7.96311e-05 -0.000652726 0.0622667 0.114469 0.125227 -0.00124631 0.0138438 0.0471881 0.110487 0.142793 0.173092 0.00254413 0.0954885 0.0108121 0.0398842 0.0225613 0.0998243 0.0662106 -0.00178678 0.0132901 0.144336 0.0622383 0.0468621 0.0202517 0.107678 0.076834 0.0354676 0.0269973 0.0506291
internal_weight=0 161170 159702 1468 329 307 153420 6282 1139 287 91 69 19146 196 4661 823 1621 173 316 134274 2241 46 230 319 1066 100 86 504 555 130
internal_count=161190 161170 159702 1468 329 307 153420 6282 1139 287 91 69 19146 196 4661 823 1621 173 316 134274 2241 46 230 319 1066 100 86 504 555 130
is_linear=0
shrinkage=0.1


Tree=33
num_leaves=31
num_cat=0
split_feature=51 51 51 51 51 51 51 51 4 51 51 51 59 60 51 51 51 53 53 51 51 8 51 47 51 51 51 51 52 51
split_gain=740.977 459.498 111.312 92.2505 26.9892 25.4585 21.3826 13.4483 12.6015 8.22201 3.52163 3.32815 2.27394 2.24249 2.14692 2.05445 1.34522 0.708154 0.639216 0.613666 0.509148 0.481852 0.516022 0.420679 0.252203 0.250471 0.247571 0.233694 0.158668 0.154475
threshold=84.500000000000014 9.5000000000000018 2.5000000000000004 30.500000000000004 60.500000000000007 1.0000000180025095e-35 16.500000000000004 5.5000000000000009 10.713383838383841 39.500000000000007 1.5000000000000002 22.500000000000004 12.500000000000002 1.0000000180025095e-35 3.5000000000000004 12.500000000000002 7.5000000000000009 14.500000000000002 30.500000000000004 27.500000000000004 4.5000000000000009 0.21142648833467412 19.500000000000004 3.5000000000000004 14.500000000000002 33.500000000000007 6.5000000000000009 11.500000000000002 12.500000000000002 8.5000000000000018
decision_type=2 2 2 2 2 2 2 2 2 2 2 2 2 2 2 2 2 2 2 2 2 2 2 2 2 2 2 2 2 2
left_child=1 2 5 6 8 18 15 14 9 23 -7 21 19 -11 -4 27 26 -15 -1 -13 -16 -8 -23 25 -17 -5 -9 -3 -26 -18
right_child=-2 3 7 4 -6 10 11 16 -10 13 -12 12 -14 17 20 24 29 -19 -20 -21 -22 22 -24 -25 28 -27 -28 -29 -30 -31
leaf_value=-0.0016053766012191772 0.60863972485065465 0.030657924389839178 0.0076655693352222446 0.093837536871433258 0.2144933062195778 0.0014849388040602208 0.041702850943519956 0.016936516761779787 0.050696457922458651 0.11904886377354462 0.0045752543956041336 0.074699883191090707 0.04557005905856689 0.17036238341104418 0.010755885392427444 0.039843954059182021 0.022985985875129702 0.14406992912292479 -0.019053471983144329 0.088982883237657101 0.013846200704574586 0.053485425183738493 0.062813361289982619 0.083700447423117497 0.047143000391898338 0.10644979861474807 0.020026831328868868 0.035592260956764224 0.037825646183707498 0.026419672369956973
leaf_weight=134253 20 375 2420 32 25 14160 21 621 36 24 4986 106 24 21 1367 189 343 20 21 42 874 138 104 21 108 31 445 129 22 212
leaf_count=134253 20 375 2420 32 25 14160 21 621 36 24 4986 106 24 21 1367 189 343 20 21 42 874 138 104 21 108 31 445 129 22 212
internal_value=0 -7.55277e-05 -0.000587454 0.0556163 0.116972 -0.00112168 0.0453742 0.0124594 0.103793 0.116622 0.00228972 0.0633069 0.074123 0.143326 0.00973086 0.0358958 0.0203052 0.157537 -0.00160811 0.0787532 0.0119611 0.0562332 0.0574941 0.0959578 0.0421759 0.100044 0.0182266 0.0319209 0.0455662 0.0242976
internal_weight=0 161170 159702 1468 210 153420 1258 6282 185 149 19146 435 172 65 4661 823 1621 41 134274 148 2241 263 242 84 319 63 1066 504 130 555
internal_count=161190 161170 159702 1468 210 153420 1258 6282 185 149 19146 435 172 65 4661 823 1621 41 134274 148 2241 263 242 84 319 63 1066 504 130 555
is_linear=0
shrinkage=0.1


Tree=34
num_leaves=31
num_cat=0
split_feature=53 51 51 51 50 35 15 51 51 0 51 51 51 60 51 51 51 51 51 51 51 4 51 51 51 2 51 51 51 51
split_gain=668.428 358.918 82.453 71.0878 33.5609 25.0188 19.2927 17.746 17.3506 16.4904 9.90563 9.3627 8.77281 3.13905 3.08381 2.50797 1.59893 1.4791 0.797811 0.675739 0.553338 0.435645 0.380323 0.280836 0.16622 0.162088 0.254268 0.15869 0.137388 0.0811123
threshold=44.500000000000007 8.5000000000000018 1.5000000000000002 22.500000000000004 84.500000000000014 115.00000000000001 58059.643752300071 40.500000000000007 4.5000000000000009 1500136.5000000002 1.0000000180025095e-35 13.500000000000002 50.500000000000007 12.500000000000002 2.5000000000000004 29.500000000000004 6.5000000000000009 17.500000000000004 10.500000000000002 3.5000000000000004 35.500000000000007 10.713383838383841 25.500000000000004 5.5000000000000009 11.500000000000002 1.5000000000000002 15.500000000000002 21.500000000000004 7.5000000000000009 18.500000000000004
decision_type=2 2 2 2 2 2 2 2 2 2 2 2 2 2 2 2 2 2 2 2 2 2 2 2 2 2 2 2 2 2
left_child=1 2 10 11 5 -5 -7 13 14 12 -1 18 -9 15 -4 22 23 25 -3 -16 -17 27 -8 -10 -20 -13 -27 29 -18 -19
right_child=-2 3 8 4 -6 6 7 9 16 -11 -12 17 -14 -15 19 20 28 21 24 -21 -22 -23 -24 -25 -26 26 -28 -29 -30 -31
leaf_value=-0.001444427433483378 0.56414325095358353 0.024818528035612523 0.0041177287697792058 0.18706853920221331 -0.03948574903465453 -0.0011368224620819092 0.066235737899939223 0.12975317319234211 0.012461581081151963 0.059163547271773934 0.0013364450074732305 0.032311239987611776 0.21402535630123959 0.044402803824498106 0.0068990126252174381 0.088978121440802055 0.018024148046970369 0.048935993151231247 0.028957149386405947 0.0096802964806556712 0.10641150784492492 0.038942814821546733 0.077236278400276651 0.015242864191532136 0.032913590974162237 0.038946162434232323 0.045252310324992454 0.060626136074806082 0.020687387883663179 0.054043509790076411
leaf_weight=134268 21 389 4986 25 21 25 60 30 874 21 14160 20 21 26 2420 67 445 44 198 1367 25 22 66 621 229 149 112 29 343 106
leaf_count=134268 21 389 4986 25 21 25 60 30 874 21 14160 20 21 26 2420 67 445 44 198 1367 25 22 66 621 229 149 112 29 343 106
internal_value=0 -7.35067e-05 -0.00055857 0.0458374 0.083454 0.0905079 0.0834287 0.090119 0.00777255 0.133744 -0.00117913 0.034622 0.164453 0.077246 0.00575169 0.0811631 0.0155382 0.0456725 0.0280945 0.00790298 0.0937155 0.0522224 0.0719979 0.0136169 0.031079 0.0409874 0.0416522 0.0538545 0.0191834 0.0525453
internal_weight=0 161169 159484 1685 387 366 341 316 11056 72 148428 1298 51 244 8773 218 2283 482 816 3787 92 201 126 1495 427 281 261 179 788 150
internal_count=161190 161169 159484 1685 387 366 341 316 11056 72 148428 1298 51 244 8773 218 2283 482 816 3787 92 201 126 1495 427 281 261 179 788 150
is_linear=0
shrinkage=0.1


Tree=35
num_leaves=31
num_cat=0
split_feature=50 51 51 51 52 52 51 14 51 51 9 51 51 60 51 53 51 51 54 51 51 51 35 51 51 53 51 51 58 51
split_gain=570.446 297.726 73.0177 54.3366 50.98 75.1434 16.7331 9.91478 22.2508 8.79542 8.33049 5.17852 3.66934 2.80186 2.31054 2.13168 1.4086 0.868382 0.837064 0.728162 0.61286 0.588237 0.427074 0.334052 0.162431 0.160513 0.151937 0.125279 0.117912 0.0939074
threshold=99.500000000000014 9.5000000000000018 2.5000000000000004 21.500000000000004 41.500000000000007 33.500000000000007 1.0000000180025095e-35 84150.873424267265 42.500000000000007 5.5000000000000009 400.72613927151218 14.500000000000002 30.500000000000004 11.500000000000002 1.5000000000000002 30.500000000000004 3.5000000000000004 7.5000000000000009 6.5000000000000009 17.500000000000004 11.500000000000002 26.500000000000004 1021.6666666666669 4.5000000000000009 6.5000000000000009 13.500000000000002 23.500000000000004 13.500000000000002 5.5000000000000009 8.5000000000000018
decision_type=2 2 2 2 2 2 2 2 2 2 2 2 2 2 2 2 2 2 2 2 2 2 2 2 2 2 2 2 2 2
left_child=1 2 6 11 5 7 15 -5 12 16 -10 20 13 21 -8 -1 -4 24 22 25 -3 26 -14 -18 -11 -13 -9 -22 -23 -19
